digraph Tree {
node [shape=box, style="rounded", color="black", fontname=helvetica] ;
edge [fontname=helvetica] ;
0 [label="Pstatus <= 0.5\nmse = 8.8\nsamples = 2496\nvalue = 4.9"] ;
1 [label="age <= 19.5\nmse = 9.0\nsamples = 1295\nvalue = 5.1"] ;
0 -> 1 [labeldistance=2.5, labelangle=45, headlabel="True"] ;
2 [label="failures <= 5.5\nmse = 8.9\nsamples = 752\nvalue = 5.3"] ;
1 -> 2 ;
3 [label="Walc <= 1.5\nmse = 8.7\nsamples = 598\nvalue = 5.5"] ;
2 -> 3 ;
4 [label="traveltime <= 0.6\nmse = 8.8\nsamples = 127\nvalue = 6.3"] ;
3 -> 4 ;
5 [label="G1 <= 0.6\nmse = 5.6\nsamples = 13\nvalue = 3.3"] ;
4 -> 5 ;
6 [label="age <= 17.5\nmse = 0.1\nsamples = 2\nvalue = 8.4"] ;
5 -> 6 ;
7 [label="mse = 0.0\nsamples = 1\nvalue = 8.6"] ;
6 -> 7 ;
8 [label="mse = 0.0\nsamples = 1\nvalue = 8.1"] ;
6 -> 8 ;
9 [label="famsize <= 4.5\nmse = 2.9\nsamples = 11\nvalue = 2.7"] ;
5 -> 9 ;
10 [label="activities <= 0.5\nmse = 0.2\nsamples = 3\nvalue = 0.7"] ;
9 -> 10 ;
11 [label="mse = 0.0\nsamples = 1\nvalue = 0.2"] ;
10 -> 11 ;
12 [label="Fjob <= 3.0\nmse = 0.1\nsamples = 2\nvalue = 1.0"] ;
10 -> 12 ;
13 [label="mse = 0.0\nsamples = 1\nvalue = 1.2"] ;
12 -> 13 ;
14 [label="mse = 0.0\nsamples = 1\nvalue = 0.7"] ;
12 -> 14 ;
15 [label="studytime <= 0.8\nmse = 1.6\nsamples = 8\nvalue = 3.6"] ;
9 -> 15 ;
16 [label="G2 <= 0.5\nmse = 0.4\nsamples = 3\nvalue = 1.7"] ;
15 -> 16 ;
17 [label="mse = 0.0\nsamples = 1\nvalue = 0.8"] ;
16 -> 17 ;
18 [label="Medu <= 2.5\nmse = 0.0\nsamples = 2\nvalue = 2.2"] ;
16 -> 18 ;
19 [label="mse = 0.0\nsamples = 1\nvalue = 2.0"] ;
18 -> 19 ;
20 [label="mse = 0.0\nsamples = 1\nvalue = 2.3"] ;
18 -> 20 ;
21 [label="G1 <= 3.5\nmse = 0.3\nsamples = 5\nvalue = 4.2"] ;
15 -> 21 ;
22 [label="mse = 0.0\nsamples = 1\nvalue = 2.8"] ;
21 -> 22 ;
23 [label="Dalc <= 1.5\nmse = 0.1\nsamples = 4\nvalue = 4.4"] ;
21 -> 23 ;
24 [label="sex <= 0.5\nmse = 0.0\nsamples = 2\nvalue = 4.7"] ;
23 -> 24 ;
25 [label="mse = 0.0\nsamples = 1\nvalue = 4.7"] ;
24 -> 25 ;
26 [label="mse = 0.0\nsamples = 1\nvalue = 4.8"] ;
24 -> 26 ;
27 [label="traveltime <= 0.3\nmse = 0.0\nsamples = 2\nvalue = 4.2"] ;
23 -> 27 ;
28 [label="mse = 0.0\nsamples = 1\nvalue = 4.4"] ;
27 -> 28 ;
29 [label="mse = -0.0\nsamples = 1\nvalue = 4.1"] ;
27 -> 29 ;
30 [label="G1 <= 0.1\nmse = 8.2\nsamples = 114\nvalue = 6.6"] ;
4 -> 30 ;
31 [label="traveltime <= 2.4\nmse = 4.1\nsamples = 3\nvalue = 1.3"] ;
30 -> 31 ;
32 [label="studytime <= 0.7\nmse = 0.1\nsamples = 2\nvalue = 0.3"] ;
31 -> 32 ;
33 [label="mse = 0.0\nsamples = 1\nvalue = 0.6"] ;
32 -> 33 ;
34 [label="mse = 0.0\nsamples = 1\nvalue = 0.0"] ;
32 -> 34 ;
35 [label="mse = 0.0\nsamples = 1\nvalue = 5.3"] ;
31 -> 35 ;
36 [label="G2 <= 1.0\nmse = 7.5\nsamples = 111\nvalue = 6.8"] ;
30 -> 36 ;
37 [label="G2 <= 0.1\nmse = 3.2\nsamples = 11\nvalue = 8.6"] ;
36 -> 37 ;
38 [label="mse = 0.0\nsamples = 1\nvalue = 4.2"] ;
37 -> 38 ;
39 [label="failures <= 3.5\nmse = 0.5\nsamples = 10\nvalue = 9.2"] ;
37 -> 39 ;
40 [label="school <= 2.5\nmse = 0.2\nsamples = 9\nvalue = 9.5"] ;
39 -> 40 ;
41 [label="failures <= 1.5\nmse = 0.0\nsamples = 4\nvalue = 9.8"] ;
40 -> 41 ;
42 [label="course <= 5.5\nmse = 0.0\nsamples = 3\nvalue = 9.9"] ;
41 -> 42 ;
43 [label="mse = 0.0\nsamples = 2\nvalue = 9.9"] ;
42 -> 43 ;
44 [label="mse = -0.0\nsamples = 1\nvalue = 10.0"] ;
42 -> 44 ;
45 [label="mse = 0.0\nsamples = 1\nvalue = 9.6"] ;
41 -> 45 ;
46 [label="G2 <= 0.2\nmse = 0.1\nsamples = 5\nvalue = 9.1"] ;
40 -> 46 ;
47 [label="mse = 0.0\nsamples = 1\nvalue = 8.5"] ;
46 -> 47 ;
48 [label="sex <= 0.5\nmse = 0.0\nsamples = 4\nvalue = 9.2"] ;
46 -> 48 ;
49 [label="freetime <= 3.5\nmse = 0.0\nsamples = 3\nvalue = 9.1"] ;
48 -> 49 ;
50 [label="famsize <= 8.0\nmse = 0.0\nsamples = 2\nvalue = 9.1"] ;
49 -> 50 ;
51 [label="mse = 0.0\nsamples = 1\nvalue = 9.1"] ;
50 -> 51 ;
52 [label="mse = 0.0\nsamples = 1\nvalue = 9.0"] ;
50 -> 52 ;
53 [label="mse = 0.0\nsamples = 1\nvalue = 9.2"] ;
49 -> 53 ;
54 [label="mse = 0.0\nsamples = 1\nvalue = 9.4"] ;
48 -> 54 ;
55 [label="mse = -0.0\nsamples = 1\nvalue = 7.8"] ;
39 -> 55 ;
56 [label="activities <= 0.5\nmse = 7.6\nsamples = 100\nvalue = 6.5"] ;
36 -> 56 ;
57 [label="school <= 0.5\nmse = 6.0\nsamples = 48\nvalue = 7.2"] ;
56 -> 57 ;
58 [label="Fjob <= 3.0\nmse = 5.8\nsamples = 3\nvalue = 2.6"] ;
57 -> 58 ;
59 [label="mse = 0.0\nsamples = 2\nvalue = 0.9"] ;
58 -> 59 ;
60 [label="mse = 0.0\nsamples = 1\nvalue = 6.0"] ;
58 -> 60 ;
61 [label="freetime <= 1.5\nmse = 5.2\nsamples = 45\nvalue = 7.4"] ;
57 -> 61 ;
62 [label="Fjob <= 2.5\nmse = 3.1\nsamples = 6\nvalue = 5.2"] ;
61 -> 62 ;
63 [label="traveltime <= 2.7\nmse = 1.4\nsamples = 3\nvalue = 6.5"] ;
62 -> 63 ;
64 [label="absences <= 4.7\nmse = 0.2\nsamples = 2\nvalue = 7.2"] ;
63 -> 64 ;
65 [label="mse = 0.0\nsamples = 1\nvalue = 7.0"] ;
64 -> 65 ;
66 [label="mse = -0.0\nsamples = 1\nvalue = 8.2"] ;
64 -> 66 ;
67 [label="mse = -0.0\nsamples = 1\nvalue = 4.8"] ;
63 -> 67 ;
68 [label="health <= 3.0\nmse = 0.7\nsamples = 3\nvalue = 3.7"] ;
62 -> 68 ;
69 [label="traveltime <= 2.5\nmse = 0.0\nsamples = 2\nvalue = 4.1"] ;
68 -> 69 ;
70 [label="mse = 0.0\nsamples = 1\nvalue = 4.1"] ;
69 -> 70 ;
71 [label="mse = 0.0\nsamples = 1\nvalue = 4.0"] ;
69 -> 71 ;
72 [label="mse = -0.0\nsamples = 1\nvalue = 1.8"] ;
68 -> 72 ;
73 [label="studytime <= 0.1\nmse = 4.5\nsamples = 39\nvalue = 7.8"] ;
61 -> 73 ;
74 [label="mse = 0.0\nsamples = 1\nvalue = 0.5"] ;
73 -> 74 ;
75 [label="absences <= 9.4\nmse = 3.8\nsamples = 38\nvalue = 7.9"] ;
73 -> 75 ;
76 [label="studytime <= 1.9\nmse = 3.1\nsamples = 37\nvalue = 8.0"] ;
75 -> 76 ;
77 [label="school <= 2.5\nmse = 2.6\nsamples = 32\nvalue = 8.3"] ;
76 -> 77 ;
78 [label="famrel <= 3.5\nmse = 4.6\nsamples = 10\nvalue = 7.3"] ;
77 -> 78 ;
79 [label="Fjob <= 2.5\nmse = 0.8\nsamples = 7\nvalue = 8.2"] ;
78 -> 79 ;
80 [label="Fjob <= 0.5\nmse = 0.2\nsamples = 4\nvalue = 8.6"] ;
79 -> 80 ;
81 [label="mse = 0.0\nsamples = 1\nvalue = 9.8"] ;
80 -> 81 ;
82 [label="traveltime <= 2.0\nmse = 0.1\nsamples = 3\nvalue = 8.5"] ;
80 -> 82 ;
83 [label="mse = 0.0\nsamples = 1\nvalue = 8.2"] ;
82 -> 83 ;
84 [label="age <= 17.5\nmse = 0.0\nsamples = 2\nvalue = 8.7"] ;
82 -> 84 ;
85 [label="mse = 0.0\nsamples = 1\nvalue = 8.8"] ;
84 -> 85 ;
86 [label="mse = 0.0\nsamples = 1\nvalue = 8.5"] ;
84 -> 86 ;
87 [label="course <= 4.5\nmse = 0.1\nsamples = 3\nvalue = 6.9"] ;
79 -> 87 ;
88 [label="Mjob <= 3.0\nmse = 0.0\nsamples = 2\nvalue = 7.1"] ;
87 -> 88 ;
89 [label="mse = 0.0\nsamples = 1\nvalue = 7.1"] ;
88 -> 89 ;
90 [label="mse = 0.0\nsamples = 1\nvalue = 7.0"] ;
88 -> 90 ;
91 [label="mse = -0.0\nsamples = 1\nvalue = 6.3"] ;
87 -> 91 ;
92 [label="G1 <= 5.9\nmse = 5.4\nsamples = 3\nvalue = 4.0"] ;
78 -> 92 ;
93 [label="school <= 1.5\nmse = 0.4\nsamples = 2\nvalue = 1.8"] ;
92 -> 93 ;
94 [label="mse = 0.0\nsamples = 1\nvalue = 1.1"] ;
93 -> 94 ;
95 [label="mse = 0.0\nsamples = 1\nvalue = 2.4"] ;
93 -> 95 ;
96 [label="mse = 0.0\nsamples = 1\nvalue = 6.3"] ;
92 -> 96 ;
97 [label="course <= 5.5\nmse = 1.1\nsamples = 22\nvalue = 8.7"] ;
77 -> 97 ;
98 [label="age <= 15.5\nmse = 0.9\nsamples = 21\nvalue = 8.8"] ;
97 -> 98 ;
99 [label="Mjob <= 2.5\nmse = 0.2\nsamples = 4\nvalue = 9.8"] ;
98 -> 99 ;
100 [label="mse = 0.0\nsamples = 1\nvalue = 8.6"] ;
99 -> 100 ;
101 [label="Fedu <= 1.5\nmse = 0.0\nsamples = 3\nvalue = 9.9"] ;
99 -> 101 ;
102 [label="mse = 0.0\nsamples = 1\nvalue = 10.0"] ;
101 -> 102 ;
103 [label="mse = -0.0\nsamples = 2\nvalue = 9.9"] ;
101 -> 103 ;
104 [label="goout <= 3.5\nmse = 0.7\nsamples = 17\nvalue = 8.5"] ;
98 -> 104 ;
105 [label="Medu <= 1.5\nmse = 0.4\nsamples = 12\nvalue = 8.9"] ;
104 -> 105 ;
106 [label="G2 <= 3.7\nmse = 0.1\nsamples = 4\nvalue = 9.5"] ;
105 -> 106 ;
107 [label="absences <= 4.7\nmse = 0.0\nsamples = 2\nvalue = 9.2"] ;
106 -> 107 ;
108 [label="mse = 0.0\nsamples = 1\nvalue = 9.3"] ;
107 -> 108 ;
109 [label="mse = 0.0\nsamples = 1\nvalue = 9.0"] ;
107 -> 109 ;
110 [label="sex <= 0.5\nmse = 0.0\nsamples = 2\nvalue = 9.7"] ;
106 -> 110 ;
111 [label="mse = 0.0\nsamples = 1\nvalue = 9.8"] ;
110 -> 111 ;
112 [label="mse = -0.0\nsamples = 1\nvalue = 9.7"] ;
110 -> 112 ;
113 [label="famrel <= 1.5\nmse = 0.1\nsamples = 8\nvalue = 8.4"] ;
105 -> 113 ;
114 [label="freetime <= 4.0\nmse = 0.0\nsamples = 2\nvalue = 8.0"] ;
113 -> 114 ;
115 [label="mse = 0.0\nsamples = 1\nvalue = 7.9"] ;
114 -> 115 ;
116 [label="mse = 0.0\nsamples = 1\nvalue = 8.2"] ;
114 -> 116 ;
117 [label="studytime <= 1.8\nmse = 0.1\nsamples = 6\nvalue = 8.5"] ;
113 -> 117 ;
118 [label="famsize <= 5.0\nmse = 0.0\nsamples = 5\nvalue = 8.4"] ;
117 -> 118 ;
119 [label="mse = 0.0\nsamples = 1\nvalue = 8.0"] ;
118 -> 119 ;
120 [label="studytime <= 0.6\nmse = 0.0\nsamples = 4\nvalue = 8.5"] ;
118 -> 120 ;
121 [label="goout <= 0.5\nmse = 0.0\nsamples = 2\nvalue = 8.6"] ;
120 -> 121 ;
122 [label="mse = 0.0\nsamples = 1\nvalue = 8.5"] ;
121 -> 122 ;
123 [label="mse = 0.0\nsamples = 1\nvalue = 8.6"] ;
121 -> 123 ;
124 [label="mse = -0.0\nsamples = 2\nvalue = 8.4"] ;
120 -> 124 ;
125 [label="mse = 0.0\nsamples = 1\nvalue = 9.1"] ;
117 -> 125 ;
126 [label="studytime <= 0.7\nmse = 0.4\nsamples = 5\nvalue = 7.6"] ;
104 -> 126 ;
127 [label="mse = 0.0\nsamples = 1\nvalue = 8.4"] ;
126 -> 127 ;
128 [label="school <= 5.0\nmse = 0.0\nsamples = 4\nvalue = 7.2"] ;
126 -> 128 ;
129 [label="mse = 0.0\nsamples = 1\nvalue = 6.8"] ;
128 -> 129 ;
130 [label="famrel <= 2.0\nmse = 0.0\nsamples = 3\nvalue = 7.3"] ;
128 -> 130 ;
131 [label="mse = 0.0\nsamples = 1\nvalue = 7.5"] ;
130 -> 131 ;
132 [label="mse = 0.0\nsamples = 2\nvalue = 7.2"] ;
130 -> 132 ;
133 [label="mse = -0.0\nsamples = 1\nvalue = 5.3"] ;
97 -> 133 ;
134 [label="school <= 2.5\nmse = 1.3\nsamples = 5\nvalue = 5.7"] ;
76 -> 134 ;
135 [label="famrel <= 3.0\nmse = 0.3\nsamples = 2\nvalue = 7.2"] ;
134 -> 135 ;
136 [label="mse = 0.0\nsamples = 1\nvalue = 7.7"] ;
135 -> 136 ;
137 [label="mse = -0.0\nsamples = 1\nvalue = 6.6"] ;
135 -> 137 ;
138 [label="Fjob <= 3.0\nmse = 0.2\nsamples = 3\nvalue = 5.0"] ;
134 -> 138 ;
139 [label="mse = 0.0\nsamples = 2\nvalue = 5.2"] ;
138 -> 139 ;
140 [label="mse = 0.0\nsamples = 1\nvalue = 4.2"] ;
138 -> 140 ;
141 [label="mse = -0.0\nsamples = 1\nvalue = 0.8"] ;
75 -> 141 ;
142 [label="Fedu <= 0.5\nmse = 8.0\nsamples = 52\nvalue = 5.7"] ;
56 -> 142 ;
143 [label="famrel <= 1.5\nmse = 3.5\nsamples = 5\nvalue = 2.4"] ;
142 -> 143 ;
144 [label="romantic <= 0.5\nmse = 0.6\nsamples = 2\nvalue = 4.6"] ;
143 -> 144 ;
145 [label="mse = 0.0\nsamples = 1\nvalue = 5.2"] ;
144 -> 145 ;
146 [label="mse = 0.0\nsamples = 1\nvalue = 3.5"] ;
144 -> 146 ;
147 [label="goout <= 2.0\nmse = 0.5\nsamples = 3\nvalue = 1.1"] ;
143 -> 147 ;
148 [label="mse = 0.0\nsamples = 1\nvalue = 0.3"] ;
147 -> 148 ;
149 [label="absences <= 0.2\nmse = 0.1\nsamples = 2\nvalue = 1.6"] ;
147 -> 149 ;
150 [label="mse = 0.0\nsamples = 1\nvalue = 1.1"] ;
149 -> 150 ;
151 [label="mse = 0.0\nsamples = 1\nvalue = 1.8"] ;
149 -> 151 ;
152 [label="G2 <= 2.7\nmse = 7.2\nsamples = 47\nvalue = 6.1"] ;
142 -> 152 ;
153 [label="Medu <= 3.0\nmse = 4.5\nsamples = 9\nvalue = 3.8"] ;
152 -> 153 ;
154 [label="famsize <= 9.5\nmse = 1.5\nsamples = 7\nvalue = 3.0"] ;
153 -> 154 ;
155 [label="G1 <= 3.3\nmse = 0.6\nsamples = 6\nvalue = 2.4"] ;
154 -> 155 ;
156 [label="address <= 0.5\nmse = 0.1\nsamples = 2\nvalue = 1.4"] ;
155 -> 156 ;
157 [label="mse = 0.0\nsamples = 1\nvalue = 1.8"] ;
156 -> 157 ;
158 [label="mse = -0.0\nsamples = 1\nvalue = 1.2"] ;
156 -> 158 ;
159 [label="absences <= 1.0\nmse = 0.1\nsamples = 4\nvalue = 2.9"] ;
155 -> 159 ;
160 [label="absences <= 0.4\nmse = 0.0\nsamples = 2\nvalue = 2.7"] ;
159 -> 160 ;
161 [label="mse = 0.0\nsamples = 1\nvalue = 2.8"] ;
160 -> 161 ;
162 [label="mse = 0.0\nsamples = 1\nvalue = 2.7"] ;
160 -> 162 ;
163 [label="Dalc <= 2.5\nmse = 0.0\nsamples = 2\nvalue = 3.2"] ;
159 -> 163 ;
164 [label="mse = 0.0\nsamples = 1\nvalue = 3.4"] ;
163 -> 164 ;
165 [label="mse = 0.0\nsamples = 1\nvalue = 3.1"] ;
163 -> 165 ;
166 [label="mse = -0.0\nsamples = 1\nvalue = 4.7"] ;
154 -> 166 ;
167 [label="higher <= 0.5\nmse = 0.0\nsamples = 2\nvalue = 8.0"] ;
153 -> 167 ;
168 [label="mse = 0.0\nsamples = 1\nvalue = 8.1"] ;
167 -> 168 ;
169 [label="mse = 0.0\nsamples = 1\nvalue = 7.8"] ;
167 -> 169 ;
170 [label="Medu <= 1.5\nmse = 6.3\nsamples = 38\nvalue = 6.6"] ;
152 -> 170 ;
171 [label="absences <= 7.9\nmse = 3.8\nsamples = 18\nvalue = 7.6"] ;
170 -> 171 ;
172 [label="freetime <= 3.5\nmse = 2.0\nsamples = 16\nvalue = 7.9"] ;
171 -> 172 ;
173 [label="famrel <= 4.5\nmse = 1.3\nsamples = 12\nvalue = 7.1"] ;
172 -> 173 ;
174 [label="absences <= 1.8\nmse = 0.7\nsamples = 4\nvalue = 5.6"] ;
173 -> 174 ;
175 [label="sex <= 0.5\nmse = 0.0\nsamples = 2\nvalue = 6.3"] ;
174 -> 175 ;
176 [label="mse = 0.0\nsamples = 1\nvalue = 6.2"] ;
175 -> 176 ;
177 [label="mse = -0.0\nsamples = 1\nvalue = 6.3"] ;
175 -> 177 ;
178 [label="Dalc <= 3.5\nmse = 0.0\nsamples = 2\nvalue = 4.6"] ;
174 -> 178 ;
179 [label="mse = 0.0\nsamples = 1\nvalue = 4.4"] ;
178 -> 179 ;
180 [label="mse = -0.0\nsamples = 1\nvalue = 4.7"] ;
178 -> 180 ;
181 [label="traveltime <= 1.7\nmse = 0.4\nsamples = 8\nvalue = 7.6"] ;
173 -> 181 ;
182 [label="famsize <= 8.0\nmse = 0.0\nsamples = 3\nvalue = 8.6"] ;
181 -> 182 ;
183 [label="freetime <= 2.0\nmse = 0.0\nsamples = 2\nvalue = 8.8"] ;
182 -> 183 ;
184 [label="mse = 0.0\nsamples = 1\nvalue = 8.8"] ;
183 -> 184 ;
185 [label="mse = 0.0\nsamples = 1\nvalue = 8.7"] ;
183 -> 185 ;
186 [label="mse = 0.0\nsamples = 1\nvalue = 8.4"] ;
182 -> 186 ;
187 [label="guardian <= 0.5\nmse = 0.1\nsamples = 5\nvalue = 7.3"] ;
181 -> 187 ;
188 [label="Fedu <= 2.0\nmse = 0.0\nsamples = 3\nvalue = 7.0"] ;
187 -> 188 ;
189 [label="mse = 0.0\nsamples = 1\nvalue = 6.8"] ;
188 -> 189 ;
190 [label="G2 <= 9.1\nmse = 0.0\nsamples = 2\nvalue = 7.1"] ;
188 -> 190 ;
191 [label="mse = 0.0\nsamples = 1\nvalue = 7.2"] ;
190 -> 191 ;
192 [label="mse = 0.0\nsamples = 1\nvalue = 7.1"] ;
190 -> 192 ;
193 [label="reason <= 1.0\nmse = 0.0\nsamples = 2\nvalue = 7.6"] ;
187 -> 193 ;
194 [label="mse = 0.0\nsamples = 1\nvalue = 7.7"] ;
193 -> 194 ;
195 [label="mse = 0.0\nsamples = 1\nvalue = 7.6"] ;
193 -> 195 ;
196 [label="school <= 4.0\nmse = 0.4\nsamples = 4\nvalue = 9.2"] ;
172 -> 196 ;
197 [label="reason <= 1.0\nmse = 0.1\nsamples = 3\nvalue = 9.6"] ;
196 -> 197 ;
198 [label="mse = 0.0\nsamples = 1\nvalue = 9.3"] ;
197 -> 198 ;
199 [label="goout <= 4.5\nmse = 0.0\nsamples = 2\nvalue = 9.8"] ;
197 -> 199 ;
200 [label="mse = 0.0\nsamples = 1\nvalue = 9.7"] ;
199 -> 200 ;
201 [label="mse = 0.0\nsamples = 1\nvalue = 9.8"] ;
199 -> 201 ;
202 [label="mse = 0.0\nsamples = 1\nvalue = 8.2"] ;
196 -> 202 ;
203 [label="G1 <= 4.2\nmse = 0.1\nsamples = 2\nvalue = 2.1"] ;
171 -> 203 ;
204 [label="mse = 0.0\nsamples = 1\nvalue = 1.8"] ;
203 -> 204 ;
205 [label="mse = -0.0\nsamples = 1\nvalue = 2.4"] ;
203 -> 205 ;
206 [label="studytime <= 0.5\nmse = 6.9\nsamples = 20\nvalue = 5.4"] ;
170 -> 206 ;
207 [label="Fedu <= 3.0\nmse = 4.4\nsamples = 6\nvalue = 7.8"] ;
206 -> 207 ;
208 [label="Dalc <= 3.5\nmse = 0.2\nsamples = 5\nvalue = 8.4"] ;
207 -> 208 ;
209 [label="G1 <= 1.7\nmse = 0.0\nsamples = 3\nvalue = 8.7"] ;
208 -> 209 ;
210 [label="mse = 0.0\nsamples = 1\nvalue = 8.4"] ;
209 -> 210 ;
211 [label="age <= 16.5\nmse = 0.0\nsamples = 2\nvalue = 8.8"] ;
209 -> 211 ;
212 [label="mse = 0.0\nsamples = 1\nvalue = 8.7"] ;
211 -> 212 ;
213 [label="mse = 0.0\nsamples = 1\nvalue = 8.9"] ;
211 -> 213 ;
214 [label="school <= 3.0\nmse = 0.1\nsamples = 2\nvalue = 7.6"] ;
208 -> 214 ;
215 [label="mse = 0.0\nsamples = 1\nvalue = 7.9"] ;
214 -> 215 ;
216 [label="mse = 0.0\nsamples = 1\nvalue = 7.4"] ;
214 -> 216 ;
217 [label="mse = -0.0\nsamples = 1\nvalue = 1.6"] ;
207 -> 217 ;
218 [label="reason <= 1.5\nmse = 3.2\nsamples = 14\nvalue = 4.1"] ;
206 -> 218 ;
219 [label="Dalc <= 2.0\nmse = 1.6\nsamples = 7\nvalue = 2.5"] ;
218 -> 219 ;
220 [label="Fedu <= 2.0\nmse = 0.2\nsamples = 2\nvalue = 4.3"] ;
219 -> 220 ;
221 [label="mse = 0.0\nsamples = 1\nvalue = 4.8"] ;
220 -> 221 ;
222 [label="mse = -0.0\nsamples = 1\nvalue = 3.8"] ;
220 -> 222 ;
223 [label="higher <= 0.5\nmse = 0.4\nsamples = 5\nvalue = 1.8"] ;
219 -> 223 ;
224 [label="age <= 17.5\nmse = 0.1\nsamples = 2\nvalue = 1.2"] ;
223 -> 224 ;
225 [label="mse = 0.0\nsamples = 1\nvalue = 0.9"] ;
224 -> 225 ;
226 [label="mse = 0.0\nsamples = 1\nvalue = 1.5"] ;
224 -> 226 ;
227 [label="goout <= 3.5\nmse = 0.2\nsamples = 3\nvalue = 2.2"] ;
223 -> 227 ;
228 [label="mse = 0.0\nsamples = 1\nvalue = 2.7"] ;
227 -> 228 ;
229 [label="failures <= 2.5\nmse = 0.0\nsamples = 2\nvalue = 1.9"] ;
227 -> 229 ;
230 [label="mse = 0.0\nsamples = 1\nvalue = 2.1"] ;
229 -> 230 ;
231 [label="mse = 0.0\nsamples = 1\nvalue = 1.7"] ;
229 -> 231 ;
232 [label="famsize <= 7.5\nmse = 1.5\nsamples = 7\nvalue = 5.2"] ;
218 -> 232 ;
233 [label="G1 <= 2.4\nmse = 0.3\nsamples = 6\nvalue = 4.8"] ;
232 -> 233 ;
234 [label="mse = 0.0\nsamples = 1\nvalue = 6.0"] ;
233 -> 234 ;
235 [label="age <= 17.5\nmse = 0.1\nsamples = 5\nvalue = 4.6"] ;
233 -> 235 ;
236 [label="goout <= 3.0\nmse = 0.0\nsamples = 2\nvalue = 4.2"] ;
235 -> 236 ;
237 [label="mse = 0.0\nsamples = 1\nvalue = 4.3"] ;
236 -> 237 ;
238 [label="mse = -0.0\nsamples = 1\nvalue = 3.9"] ;
236 -> 238 ;
239 [label="goout <= 2.0\nmse = 0.0\nsamples = 3\nvalue = 4.9"] ;
235 -> 239 ;
240 [label="mse = 0.0\nsamples = 2\nvalue = 4.9"] ;
239 -> 240 ;
241 [label="mse = 0.0\nsamples = 1\nvalue = 5.0"] ;
239 -> 241 ;
242 [label="mse = 0.0\nsamples = 1\nvalue = 8.4"] ;
232 -> 242 ;
243 [label="famsize <= 7.5\nmse = 8.4\nsamples = 471\nvalue = 5.3"] ;
3 -> 243 ;
244 [label="paid <= 0.5\nmse = 8.3\nsamples = 289\nvalue = 4.9"] ;
243 -> 244 ;
245 [label="studytime <= 1.6\nmse = 7.9\nsamples = 243\nvalue = 4.7"] ;
244 -> 245 ;
246 [label="schoolsup <= 0.5\nmse = 7.7\nsamples = 198\nvalue = 4.5"] ;
245 -> 246 ;
247 [label="traveltime <= 0.9\nmse = 6.5\nsamples = 51\nvalue = 3.5"] ;
246 -> 247 ;
248 [label="absences <= 5.2\nmse = 3.1\nsamples = 11\nvalue = 1.2"] ;
247 -> 248 ;
249 [label="age <= 16.5\nmse = 0.3\nsamples = 9\nvalue = 0.6"] ;
248 -> 249 ;
250 [label="reason <= 2.5\nmse = 0.0\nsamples = 6\nvalue = 0.4"] ;
249 -> 250 ;
251 [label="health <= 2.0\nmse = 0.0\nsamples = 2\nvalue = 0.2"] ;
250 -> 251 ;
252 [label="mse = 0.0\nsamples = 1\nvalue = 0.1"] ;
251 -> 252 ;
253 [label="mse = -0.0\nsamples = 1\nvalue = 0.3"] ;
251 -> 253 ;
254 [label="Medu <= 3.0\nmse = 0.0\nsamples = 4\nvalue = 0.5"] ;
250 -> 254 ;
255 [label="mse = 0.0\nsamples = 3\nvalue = 0.5"] ;
254 -> 255 ;
256 [label="mse = -0.0\nsamples = 1\nvalue = 0.6"] ;
254 -> 256 ;
257 [label="goout <= 2.5\nmse = 0.5\nsamples = 3\nvalue = 1.5"] ;
249 -> 257 ;
258 [label="G1 <= 3.9\nmse = 0.0\nsamples = 2\nvalue = 2.0"] ;
257 -> 258 ;
259 [label="mse = 0.0\nsamples = 1\nvalue = 1.9"] ;
258 -> 259 ;
260 [label="mse = 0.0\nsamples = 1\nvalue = 2.2"] ;
258 -> 260 ;
261 [label="mse = 0.0\nsamples = 1\nvalue = 0.5"] ;
257 -> 261 ;
262 [label="G1 <= 7.8\nmse = 0.5\nsamples = 2\nvalue = 5.8"] ;
248 -> 262 ;
263 [label="mse = 0.0\nsamples = 1\nvalue = 6.5"] ;
262 -> 263 ;
264 [label="mse = -0.0\nsamples = 1\nvalue = 5.1"] ;
262 -> 264 ;
265 [label="course <= 0.5\nmse = 5.7\nsamples = 40\nvalue = 4.1"] ;
247 -> 265 ;
266 [label="address <= 0.5\nmse = 5.2\nsamples = 6\nvalue = 6.5"] ;
265 -> 266 ;
267 [label="Mjob <= 3.5\nmse = 2.9\nsamples = 5\nvalue = 5.6"] ;
266 -> 267 ;
268 [label="higher <= 0.5\nmse = 1.0\nsamples = 4\nvalue = 5.0"] ;
267 -> 268 ;
269 [label="age <= 16.5\nmse = 0.0\nsamples = 2\nvalue = 3.6"] ;
268 -> 269 ;
270 [label="mse = 0.0\nsamples = 1\nvalue = 3.7"] ;
269 -> 270 ;
271 [label="mse = -0.0\nsamples = 1\nvalue = 3.6"] ;
269 -> 271 ;
272 [label="reason <= 1.0\nmse = 0.2\nsamples = 2\nvalue = 5.6"] ;
268 -> 272 ;
273 [label="mse = 0.0\nsamples = 1\nvalue = 4.9"] ;
272 -> 273 ;
274 [label="mse = -0.0\nsamples = 1\nvalue = 5.9"] ;
272 -> 274 ;
275 [label="mse = -0.0\nsamples = 1\nvalue = 9.1"] ;
267 -> 275 ;
276 [label="mse = 0.0\nsamples = 1\nvalue = 9.7"] ;
266 -> 276 ;
277 [label="absences <= 7.4\nmse = 4.8\nsamples = 34\nvalue = 3.7"] ;
265 -> 277 ;
278 [label="age <= 17.5\nmse = 3.9\nsamples = 29\nvalue = 3.3"] ;
277 -> 278 ;
279 [label="studytime <= 0.6\nmse = 2.3\nsamples = 15\nvalue = 2.5"] ;
278 -> 279 ;
280 [label="mse = 0.0\nsamples = 1\nvalue = 8.4"] ;
279 -> 280 ;
281 [label="famsize <= 3.5\nmse = 1.0\nsamples = 14\nvalue = 2.3"] ;
279 -> 281 ;
282 [label="traveltime <= 1.7\nmse = 0.4\nsamples = 2\nvalue = 4.0"] ;
281 -> 282 ;
283 [label="mse = 0.0\nsamples = 1\nvalue = 4.6"] ;
282 -> 283 ;
284 [label="mse = 0.0\nsamples = 1\nvalue = 3.3"] ;
282 -> 284 ;
285 [label="G1 <= 8.6\nmse = 0.5\nsamples = 12\nvalue = 2.0"] ;
281 -> 285 ;
286 [label="Fjob <= 1.5\nmse = 0.2\nsamples = 10\nvalue = 2.3"] ;
285 -> 286 ;
287 [label="famrel <= 4.0\nmse = 0.1\nsamples = 4\nvalue = 2.7"] ;
286 -> 287 ;
288 [label="Mjob <= 1.5\nmse = 0.0\nsamples = 3\nvalue = 2.6"] ;
287 -> 288 ;
289 [label="mse = 0.0\nsamples = 1\nvalue = 2.5"] ;
288 -> 289 ;
290 [label="health <= 3.5\nmse = 0.0\nsamples = 2\nvalue = 2.7"] ;
288 -> 290 ;
291 [label="mse = 0.0\nsamples = 1\nvalue = 2.7"] ;
290 -> 291 ;
292 [label="mse = 0.0\nsamples = 1\nvalue = 2.8"] ;
290 -> 292 ;
293 [label="mse = -0.0\nsamples = 1\nvalue = 3.3"] ;
287 -> 293 ;
294 [label="studytime <= 1.4\nmse = 0.1\nsamples = 6\nvalue = 2.0"] ;
286 -> 294 ;
295 [label="guardian <= 1.5\nmse = 0.0\nsamples = 3\nvalue = 2.2"] ;
294 -> 295 ;
296 [label="mse = 0.0\nsamples = 1\nvalue = 2.3"] ;
295 -> 296 ;
297 [label="mse = 0.0\nsamples = 2\nvalue = 2.2"] ;
295 -> 297 ;
298 [label="Walc <= 3.0\nmse = 0.0\nsamples = 3\nvalue = 1.6"] ;
294 -> 298 ;
299 [label="health <= 4.5\nmse = 0.0\nsamples = 2\nvalue = 1.4"] ;
298 -> 299 ;
300 [label="mse = 0.0\nsamples = 1\nvalue = 1.5"] ;
299 -> 300 ;
301 [label="mse = 0.0\nsamples = 1\nvalue = 1.4"] ;
299 -> 301 ;
302 [label="mse = -0.0\nsamples = 1\nvalue = 1.7"] ;
298 -> 302 ;
303 [label="reason <= 2.0\nmse = 0.3\nsamples = 2\nvalue = 1.1"] ;
285 -> 303 ;
304 [label="mse = 0.0\nsamples = 1\nvalue = 1.5"] ;
303 -> 304 ;
305 [label="mse = 0.0\nsamples = 1\nvalue = 0.4"] ;
303 -> 305 ;
306 [label="school <= 2.5\nmse = 4.4\nsamples = 14\nvalue = 4.2"] ;
278 -> 306 ;
307 [label="age <= 18.5\nmse = 3.2\nsamples = 3\nvalue = 7.5"] ;
306 -> 307 ;
308 [label="reason <= 1.5\nmse = 0.5\nsamples = 2\nvalue = 8.5"] ;
307 -> 308 ;
309 [label="mse = 0.0\nsamples = 1\nvalue = 8.0"] ;
308 -> 309 ;
310 [label="mse = 0.0\nsamples = 1\nvalue = 9.5"] ;
308 -> 310 ;
311 [label="mse = -0.0\nsamples = 1\nvalue = 4.6"] ;
307 -> 311 ;
312 [label="studytime <= 1.2\nmse = 1.7\nsamples = 11\nvalue = 3.4"] ;
306 -> 312 ;
313 [label="absences <= 0.5\nmse = 1.0\nsamples = 8\nvalue = 2.9"] ;
312 -> 313 ;
314 [label="mse = 0.0\nsamples = 1\nvalue = 0.0"] ;
313 -> 314 ;
315 [label="famsize <= 3.5\nmse = 0.3\nsamples = 7\nvalue = 3.1"] ;
313 -> 315 ;
316 [label="mse = 0.0\nsamples = 2\nvalue = 2.4"] ;
315 -> 316 ;
317 [label="freetime <= 2.0\nmse = 0.1\nsamples = 5\nvalue = 3.4"] ;
315 -> 317 ;
318 [label="G1 <= 3.2\nmse = 0.0\nsamples = 2\nvalue = 3.7"] ;
317 -> 318 ;
319 [label="mse = 0.0\nsamples = 1\nvalue = 4.1"] ;
318 -> 319 ;
320 [label="mse = -0.0\nsamples = 1\nvalue = 3.6"] ;
318 -> 320 ;
321 [label="famsup <= 0.5\nmse = 0.0\nsamples = 3\nvalue = 3.2"] ;
317 -> 321 ;
322 [label="mse = 0.0\nsamples = 1\nvalue = 3.0"] ;
321 -> 322 ;
323 [label="mse = -0.0\nsamples = 2\nvalue = 3.2"] ;
321 -> 323 ;
324 [label="sex <= 0.5\nmse = 0.3\nsamples = 3\nvalue = 5.0"] ;
312 -> 324 ;
325 [label="failures <= 2.0\nmse = 0.0\nsamples = 2\nvalue = 5.6"] ;
324 -> 325 ;
326 [label="mse = 0.0\nsamples = 1\nvalue = 5.8"] ;
325 -> 326 ;
327 [label="mse = -0.0\nsamples = 1\nvalue = 5.5"] ;
325 -> 327 ;
328 [label="mse = 0.0\nsamples = 1\nvalue = 4.5"] ;
324 -> 328 ;
329 [label="Fjob <= 0.5\nmse = 3.3\nsamples = 5\nvalue = 5.8"] ;
277 -> 329 ;
330 [label="mse = 0.0\nsamples = 2\nvalue = 4.0"] ;
329 -> 330 ;
331 [label="Mjob <= 1.5\nmse = 1.0\nsamples = 3\nvalue = 7.3"] ;
329 -> 331 ;
332 [label="mse = 0.0\nsamples = 1\nvalue = 9.4"] ;
331 -> 332 ;
333 [label="Walc <= 2.5\nmse = 0.2\nsamples = 2\nvalue = 6.9"] ;
331 -> 333 ;
334 [label="mse = 0.0\nsamples = 1\nvalue = 6.4"] ;
333 -> 334 ;
335 [label="mse = -0.0\nsamples = 1\nvalue = 7.2"] ;
333 -> 335 ;
336 [label="school <= 1.5\nmse = 7.7\nsamples = 147\nvalue = 4.8"] ;
246 -> 336 ;
337 [label="studytime <= 1.4\nmse = 8.1\nsamples = 30\nvalue = 6.2"] ;
336 -> 337 ;
338 [label="goout <= 0.5\nmse = 5.3\nsamples = 21\nvalue = 7.1"] ;
337 -> 338 ;
339 [label="Mjob <= 1.5\nmse = 1.0\nsamples = 4\nvalue = 3.2"] ;
338 -> 339 ;
340 [label="Mjob <= 0.5\nmse = 0.3\nsamples = 3\nvalue = 2.7"] ;
339 -> 340 ;
341 [label="guardian <= 0.5\nmse = 0.0\nsamples = 2\nvalue = 3.1"] ;
340 -> 341 ;
342 [label="mse = 0.0\nsamples = 1\nvalue = 3.3"] ;
341 -> 342 ;
343 [label="mse = 0.0\nsamples = 1\nvalue = 2.9"] ;
341 -> 343 ;
344 [label="mse = -0.0\nsamples = 1\nvalue = 1.9"] ;
340 -> 344 ;
345 [label="mse = 0.0\nsamples = 1\nvalue = 4.7"] ;
339 -> 345 ;
346 [label="traveltime <= 2.6\nmse = 3.2\nsamples = 17\nvalue = 7.8"] ;
338 -> 346 ;
347 [label="absences <= 0.4\nmse = 0.5\nsamples = 9\nvalue = 8.9"] ;
346 -> 347 ;
348 [label="studytime <= 1.2\nmse = 0.0\nsamples = 2\nvalue = 7.9"] ;
347 -> 348 ;
349 [label="mse = -0.0\nsamples = 1\nvalue = 7.9"] ;
348 -> 349 ;
350 [label="mse = 0.0\nsamples = 1\nvalue = 8.0"] ;
348 -> 350 ;
351 [label="age <= 18.5\nmse = 0.3\nsamples = 7\nvalue = 9.2"] ;
347 -> 351 ;
352 [label="Medu <= 1.5\nmse = 0.1\nsamples = 5\nvalue = 9.5"] ;
351 -> 352 ;
353 [label="health <= 3.5\nmse = 0.0\nsamples = 2\nvalue = 9.3"] ;
352 -> 353 ;
354 [label="mse = 0.0\nsamples = 1\nvalue = 9.3"] ;
353 -> 354 ;
355 [label="mse = 0.0\nsamples = 1\nvalue = 9.2"] ;
353 -> 355 ;
356 [label="absences <= 2.6\nmse = 0.0\nsamples = 3\nvalue = 9.8"] ;
352 -> 356 ;
357 [label="mse = 0.0\nsamples = 2\nvalue = 9.8"] ;
356 -> 357 ;
358 [label="mse = 0.0\nsamples = 1\nvalue = 9.6"] ;
356 -> 358 ;
359 [label="Dalc <= 2.0\nmse = 0.2\nsamples = 2\nvalue = 8.6"] ;
351 -> 359 ;
360 [label="mse = 0.0\nsamples = 1\nvalue = 9.1"] ;
359 -> 360 ;
361 [label="mse = 0.0\nsamples = 1\nvalue = 8.2"] ;
359 -> 361 ;
362 [label="traveltime <= 2.9\nmse = 2.7\nsamples = 8\nvalue = 6.2"] ;
346 -> 362 ;
363 [label="freetime <= 4.0\nmse = 0.7\nsamples = 2\nvalue = 3.4"] ;
362 -> 363 ;
364 [label="mse = 0.0\nsamples = 1\nvalue = 4.2"] ;
363 -> 364 ;
365 [label="mse = 0.0\nsamples = 1\nvalue = 2.5"] ;
363 -> 365 ;
366 [label="goout <= 4.0\nmse = 0.9\nsamples = 6\nvalue = 6.9"] ;
362 -> 366 ;
367 [label="famrel <= 2.5\nmse = 0.1\nsamples = 2\nvalue = 5.9"] ;
366 -> 367 ;
368 [label="mse = 0.0\nsamples = 1\nvalue = 6.2"] ;
367 -> 368 ;
369 [label="mse = -0.0\nsamples = 1\nvalue = 5.6"] ;
367 -> 369 ;
370 [label="course <= 1.5\nmse = 0.3\nsamples = 4\nvalue = 7.6"] ;
366 -> 370 ;
371 [label="Fedu <= 3.5\nmse = 0.0\nsamples = 2\nvalue = 7.2"] ;
370 -> 371 ;
372 [label="mse = 0.0\nsamples = 1\nvalue = 7.1"] ;
371 -> 372 ;
373 [label="mse = -0.0\nsamples = 1\nvalue = 7.4"] ;
371 -> 373 ;
374 [label="traveltime <= 3.5\nmse = 0.0\nsamples = 2\nvalue = 8.2"] ;
370 -> 374 ;
375 [label="mse = 0.0\nsamples = 1\nvalue = 8.3"] ;
374 -> 375 ;
376 [label="mse = -0.0\nsamples = 1\nvalue = 8.2"] ;
374 -> 376 ;
377 [label="Dalc <= 3.5\nmse = 7.3\nsamples = 9\nvalue = 3.9"] ;
337 -> 377 ;
378 [label="freetime <= 2.5\nmse = 1.5\nsamples = 5\nvalue = 5.9"] ;
377 -> 378 ;
379 [label="G1 <= 4.2\nmse = 0.2\nsamples = 2\nvalue = 4.8"] ;
378 -> 379 ;
380 [label="mse = -0.0\nsamples = 1\nvalue = 5.1"] ;
379 -> 380 ;
381 [label="mse = 0.0\nsamples = 1\nvalue = 4.0"] ;
379 -> 381 ;
382 [label="freetime <= 4.0\nmse = 0.5\nsamples = 3\nvalue = 7.0"] ;
378 -> 382 ;
383 [label="mse = 0.0\nsamples = 1\nvalue = 8.2"] ;
382 -> 383 ;
384 [label="guardian <= 1.5\nmse = 0.1\nsamples = 2\nvalue = 6.6"] ;
382 -> 384 ;
385 [label="mse = 0.0\nsamples = 1\nvalue = 6.9"] ;
384 -> 385 ;
386 [label="mse = -0.0\nsamples = 1\nvalue = 6.4"] ;
384 -> 386 ;
387 [label="famsize <= 6.5\nmse = 0.3\nsamples = 4\nvalue = 0.8"] ;
377 -> 387 ;
388 [label="higher <= 0.5\nmse = 0.1\nsamples = 3\nvalue = 0.3"] ;
387 -> 388 ;
389 [label="mse = 0.0\nsamples = 1\nvalue = 0.0"] ;
388 -> 389 ;
390 [label="studytime <= 1.4\nmse = 0.0\nsamples = 2\nvalue = 0.5"] ;
388 -> 390 ;
391 [label="mse = 0.0\nsamples = 1\nvalue = 0.4"] ;
390 -> 391 ;
392 [label="mse = 0.0\nsamples = 1\nvalue = 0.6"] ;
390 -> 392 ;
393 [label="mse = 0.0\nsamples = 1\nvalue = 1.4"] ;
387 -> 393 ;
394 [label="Dalc <= 4.5\nmse = 7.1\nsamples = 117\nvalue = 4.5"] ;
336 -> 394 ;
395 [label="G2 <= 4.6\nmse = 6.7\nsamples = 96\nvalue = 4.2"] ;
394 -> 395 ;
396 [label="freetime <= 1.5\nmse = 6.8\nsamples = 47\nvalue = 4.9"] ;
395 -> 396 ;
397 [label="G1 <= 8.5\nmse = 4.3\nsamples = 10\nvalue = 6.7"] ;
396 -> 397 ;
398 [label="Walc <= 3.5\nmse = 1.1\nsamples = 9\nvalue = 7.3"] ;
397 -> 398 ;
399 [label="absences <= 7.3\nmse = 0.2\nsamples = 3\nvalue = 6.2"] ;
398 -> 399 ;
400 [label="famrel <= 3.0\nmse = 0.0\nsamples = 2\nvalue = 6.9"] ;
399 -> 400 ;
401 [label="mse = 0.0\nsamples = 1\nvalue = 7.0"] ;
400 -> 401 ;
402 [label="mse = -0.0\nsamples = 1\nvalue = 6.8"] ;
400 -> 402 ;
403 [label="mse = 0.0\nsamples = 1\nvalue = 5.9"] ;
399 -> 403 ;
404 [label="Fjob <= 1.0\nmse = 0.5\nsamples = 6\nvalue = 8.0"] ;
398 -> 404 ;
405 [label="mse = 0.0\nsamples = 1\nvalue = 7.1"] ;
404 -> 405 ;
406 [label="G1 <= 3.9\nmse = 0.3\nsamples = 5\nvalue = 8.3"] ;
404 -> 406 ;
407 [label="mse = 0.0\nsamples = 1\nvalue = 9.6"] ;
406 -> 407 ;
408 [label="absences <= 0.7\nmse = 0.0\nsamples = 4\nvalue = 8.1"] ;
406 -> 408 ;
409 [label="mse = 0.0\nsamples = 1\nvalue = 7.9"] ;
408 -> 409 ;
410 [label="health <= 3.5\nmse = 0.0\nsamples = 3\nvalue = 8.1"] ;
408 -> 410 ;
411 [label="mse = -0.0\nsamples = 1\nvalue = 8.1"] ;
410 -> 411 ;
412 [label="mse = 0.0\nsamples = 2\nvalue = 8.2"] ;
410 -> 412 ;
413 [label="mse = 0.0\nsamples = 1\nvalue = 1.5"] ;
397 -> 413 ;
414 [label="course <= 0.5\nmse = 6.4\nsamples = 37\nvalue = 4.4"] ;
396 -> 414 ;
415 [label="traveltime <= 2.6\nmse = 3.6\nsamples = 6\nvalue = 6.4"] ;
414 -> 415 ;
416 [label="traveltime <= 1.3\nmse = 1.1\nsamples = 2\nvalue = 4.8"] ;
415 -> 416 ;
417 [label="mse = -0.0\nsamples = 1\nvalue = 5.8"] ;
416 -> 417 ;
418 [label="mse = 0.0\nsamples = 1\nvalue = 3.7"] ;
416 -> 418 ;
419 [label="Mjob <= 2.5\nmse = 0.9\nsamples = 4\nvalue = 8.0"] ;
415 -> 419 ;
420 [label="school <= 4.5\nmse = 0.2\nsamples = 3\nvalue = 7.6"] ;
419 -> 420 ;
421 [label="mse = 0.0\nsamples = 1\nvalue = 8.4"] ;
420 -> 421 ;
422 [label="absences <= 4.2\nmse = 0.0\nsamples = 2\nvalue = 7.4"] ;
420 -> 422 ;
423 [label="mse = 0.0\nsamples = 1\nvalue = 7.6"] ;
422 -> 423 ;
424 [label="mse = -0.0\nsamples = 1\nvalue = 7.2"] ;
422 -> 424 ;
425 [label="mse = 0.0\nsamples = 1\nvalue = 9.9"] ;
419 -> 425 ;
426 [label="Walc <= 4.5\nmse = 5.8\nsamples = 31\nvalue = 3.9"] ;
414 -> 426 ;
427 [label="school <= 5.5\nmse = 5.3\nsamples = 26\nvalue = 3.4"] ;
426 -> 427 ;
428 [label="sex <= 0.5\nmse = 3.9\nsamples = 20\nvalue = 2.8"] ;
427 -> 428 ;
429 [label="famsize <= 5.5\nmse = 3.2\nsamples = 9\nvalue = 3.9"] ;
428 -> 429 ;
430 [label="goout <= 4.0\nmse = 0.5\nsamples = 5\nvalue = 2.5"] ;
429 -> 430 ;
431 [label="Walc <= 2.5\nmse = 0.2\nsamples = 4\nvalue = 2.8"] ;
430 -> 431 ;
432 [label="mse = 0.0\nsamples = 1\nvalue = 3.6"] ;
431 -> 432 ;
433 [label="Mjob <= 2.0\nmse = 0.0\nsamples = 3\nvalue = 2.6"] ;
431 -> 433 ;
434 [label="mse = 0.0\nsamples = 1\nvalue = 2.8"] ;
433 -> 434 ;
435 [label="age <= 16.5\nmse = 0.0\nsamples = 2\nvalue = 2.5"] ;
433 -> 435 ;
436 [label="mse = 0.0\nsamples = 1\nvalue = 2.5"] ;
435 -> 436 ;
437 [label="mse = -0.0\nsamples = 1\nvalue = 2.4"] ;
435 -> 437 ;
438 [label="mse = 0.0\nsamples = 1\nvalue = 1.0"] ;
430 -> 438 ;
439 [label="famrel <= 2.5\nmse = 2.0\nsamples = 4\nvalue = 5.3"] ;
429 -> 439 ;
440 [label="mse = 0.0\nsamples = 1\nvalue = 8.4"] ;
439 -> 440 ;
441 [label="school <= 4.0\nmse = 0.5\nsamples = 3\nvalue = 4.8"] ;
439 -> 441 ;
442 [label="mse = 0.0\nsamples = 1\nvalue = 5.6"] ;
441 -> 442 ;
443 [label="G2 <= 2.5\nmse = 0.2\nsamples = 2\nvalue = 4.4"] ;
441 -> 443 ;
444 [label="mse = 0.0\nsamples = 1\nvalue = 3.6"] ;
443 -> 444 ;
445 [label="mse = 0.0\nsamples = 1\nvalue = 4.6"] ;
443 -> 445 ;
446 [label="G1 <= 7.8\nmse = 2.2\nsamples = 11\nvalue = 1.7"] ;
428 -> 446 ;
447 [label="course <= 5.0\nmse = 0.7\nsamples = 7\nvalue = 0.9"] ;
446 -> 447 ;
448 [label="Fedu <= 1.5\nmse = 0.3\nsamples = 6\nvalue = 0.7"] ;
447 -> 448 ;
449 [label="course <= 1.5\nmse = 0.0\nsamples = 2\nvalue = 0.1"] ;
448 -> 449 ;
450 [label="mse = 0.0\nsamples = 1\nvalue = 0.1"] ;
449 -> 450 ;
451 [label="mse = 0.0\nsamples = 1\nvalue = 0.0"] ;
449 -> 451 ;
452 [label="age <= 15.5\nmse = 0.0\nsamples = 4\nvalue = 1.1"] ;
448 -> 452 ;
453 [label="course <= 2.5\nmse = 0.0\nsamples = 2\nvalue = 1.2"] ;
452 -> 453 ;
454 [label="mse = 0.0\nsamples = 1\nvalue = 1.1"] ;
453 -> 454 ;
455 [label="mse = 0.0\nsamples = 1\nvalue = 1.3"] ;
453 -> 455 ;
456 [label="G2 <= 2.0\nmse = 0.0\nsamples = 2\nvalue = 0.8"] ;
452 -> 456 ;
457 [label="mse = 0.0\nsamples = 1\nvalue = 0.8"] ;
456 -> 457 ;
458 [label="mse = -0.0\nsamples = 1\nvalue = 0.9"] ;
456 -> 458 ;
459 [label="mse = 0.0\nsamples = 1\nvalue = 2.9"] ;
447 -> 459 ;
460 [label="absences <= 0.6\nmse = 2.2\nsamples = 4\nvalue = 2.9"] ;
446 -> 460 ;
461 [label="course <= 4.0\nmse = 0.0\nsamples = 2\nvalue = 5.0"] ;
460 -> 461 ;
462 [label="mse = 0.0\nsamples = 1\nvalue = 5.1"] ;
461 -> 462 ;
463 [label="mse = 0.0\nsamples = 1\nvalue = 4.9"] ;
461 -> 463 ;
464 [label="goout <= 1.5\nmse = 0.0\nsamples = 2\nvalue = 1.8"] ;
460 -> 464 ;
465 [label="mse = 0.0\nsamples = 1\nvalue = 2.0"] ;
464 -> 465 ;
466 [label="mse = -0.0\nsamples = 1\nvalue = 1.7"] ;
464 -> 466 ;
467 [label="G1 <= 3.8\nmse = 3.8\nsamples = 6\nvalue = 5.7"] ;
427 -> 467 ;
468 [label="G2 <= 3.1\nmse = 0.1\nsamples = 2\nvalue = 7.9"] ;
467 -> 468 ;
469 [label="mse = 0.0\nsamples = 1\nvalue = 7.4"] ;
468 -> 469 ;
470 [label="mse = 0.0\nsamples = 1\nvalue = 8.2"] ;
468 -> 470 ;
471 [label="studytime <= 0.5\nmse = 1.2\nsamples = 4\nvalue = 4.4"] ;
467 -> 471 ;
472 [label="mse = 0.0\nsamples = 1\nvalue = 2.5"] ;
471 -> 472 ;
473 [label="studytime <= 1.2\nmse = 0.4\nsamples = 3\nvalue = 4.8"] ;
471 -> 473 ;
474 [label="Walc <= 2.5\nmse = 0.1\nsamples = 2\nvalue = 4.5"] ;
473 -> 474 ;
475 [label="mse = 0.0\nsamples = 1\nvalue = 4.9"] ;
474 -> 475 ;
476 [label="mse = 0.0\nsamples = 1\nvalue = 4.3"] ;
474 -> 476 ;
477 [label="mse = -0.0\nsamples = 1\nvalue = 5.9"] ;
473 -> 477 ;
478 [label="famsize <= 6.0\nmse = 2.3\nsamples = 5\nvalue = 6.1"] ;
426 -> 478 ;
479 [label="Dalc <= 1.5\nmse = 0.5\nsamples = 3\nvalue = 5.3"] ;
478 -> 479 ;
480 [label="mse = 0.0\nsamples = 1\nvalue = 5.8"] ;
479 -> 480 ;
481 [label="Mjob <= 3.0\nmse = 0.0\nsamples = 2\nvalue = 4.3"] ;
479 -> 481 ;
482 [label="mse = 0.0\nsamples = 1\nvalue = 4.5"] ;
481 -> 482 ;
483 [label="mse = 0.0\nsamples = 1\nvalue = 4.1"] ;
481 -> 483 ;
484 [label="traveltime <= 2.7\nmse = 0.7\nsamples = 2\nvalue = 8.4"] ;
478 -> 484 ;
485 [label="mse = 0.0\nsamples = 1\nvalue = 9.2"] ;
484 -> 485 ;
486 [label="mse = 0.0\nsamples = 1\nvalue = 7.5"] ;
484 -> 486 ;
487 [label="absences <= 7.8\nmse = 5.8\nsamples = 49\nvalue = 3.6"] ;
395 -> 487 ;
488 [label="absences <= 1.0\nmse = 6.0\nsamples = 41\nvalue = 4.0"] ;
487 -> 488 ;
489 [label="Dalc <= 2.0\nmse = 5.6\nsamples = 19\nvalue = 2.9"] ;
488 -> 489 ;
490 [label="famsize <= 4.5\nmse = 3.7\nsamples = 6\nvalue = 5.5"] ;
489 -> 490 ;
491 [label="Medu <= 1.5\nmse = 2.1\nsamples = 3\nvalue = 7.6"] ;
490 -> 491 ;
492 [label="mse = 0.0\nsamples = 1\nvalue = 9.6"] ;
491 -> 492 ;
493 [label="traveltime <= 2.6\nmse = 0.0\nsamples = 2\nvalue = 6.6"] ;
491 -> 493 ;
494 [label="mse = 0.0\nsamples = 1\nvalue = 6.6"] ;
493 -> 494 ;
495 [label="mse = 0.0\nsamples = 1\nvalue = 6.5"] ;
493 -> 495 ;
496 [label="health <= 2.5\nmse = 0.4\nsamples = 3\nvalue = 4.2"] ;
490 -> 496 ;
497 [label="famsize <= 5.5\nmse = 0.1\nsamples = 2\nvalue = 3.4"] ;
496 -> 497 ;
498 [label="mse = 0.0\nsamples = 1\nvalue = 3.8"] ;
497 -> 498 ;
499 [label="mse = -0.0\nsamples = 1\nvalue = 3.1"] ;
497 -> 499 ;
500 [label="mse = 0.0\nsamples = 1\nvalue = 4.7"] ;
496 -> 500 ;
501 [label="traveltime <= 0.2\nmse = 3.0\nsamples = 13\nvalue = 1.9"] ;
489 -> 501 ;
502 [label="age <= 18.5\nmse = 1.1\nsamples = 2\nvalue = 6.2"] ;
501 -> 502 ;
503 [label="mse = 0.0\nsamples = 1\nvalue = 5.1"] ;
502 -> 503 ;
504 [label="mse = -0.0\nsamples = 1\nvalue = 7.2"] ;
502 -> 504 ;
505 [label="health <= 3.5\nmse = 1.3\nsamples = 11\nvalue = 1.5"] ;
501 -> 505 ;
506 [label="address <= 0.5\nmse = 0.5\nsamples = 7\nvalue = 0.9"] ;
505 -> 506 ;
507 [label="studytime <= 1.2\nmse = 0.3\nsamples = 2\nvalue = 2.1"] ;
506 -> 507 ;
508 [label="mse = 0.0\nsamples = 1\nvalue = 2.8"] ;
507 -> 508 ;
509 [label="mse = 0.0\nsamples = 1\nvalue = 1.7"] ;
507 -> 509 ;
510 [label="traveltime <= 1.5\nmse = 0.0\nsamples = 5\nvalue = 0.5"] ;
506 -> 510 ;
511 [label="mse = -0.0\nsamples = 1\nvalue = 0.8"] ;
510 -> 511 ;
512 [label="G2 <= 7.2\nmse = 0.0\nsamples = 4\nvalue = 0.4"] ;
510 -> 512 ;
513 [label="mse = 0.0\nsamples = 2\nvalue = 0.3"] ;
512 -> 513 ;
514 [label="mse = -0.0\nsamples = 2\nvalue = 0.5"] ;
512 -> 514 ;
515 [label="Mjob <= 3.0\nmse = 0.4\nsamples = 4\nvalue = 2.7"] ;
505 -> 515 ;
516 [label="Fedu <= 2.0\nmse = 0.1\nsamples = 2\nvalue = 3.1"] ;
515 -> 516 ;
517 [label="mse = 0.0\nsamples = 1\nvalue = 3.5"] ;
516 -> 517 ;
518 [label="mse = 0.0\nsamples = 1\nvalue = 2.8"] ;
516 -> 518 ;
519 [label="G1 <= 4.2\nmse = 0.0\nsamples = 2\nvalue = 1.8"] ;
515 -> 519 ;
520 [label="mse = 0.0\nsamples = 1\nvalue = 1.9"] ;
519 -> 520 ;
521 [label="mse = 0.0\nsamples = 1\nvalue = 1.7"] ;
519 -> 521 ;
522 [label="studytime <= 0.5\nmse = 4.7\nsamples = 22\nvalue = 4.8"] ;
488 -> 522 ;
523 [label="reason <= 0.5\nmse = 3.8\nsamples = 8\nvalue = 3.3"] ;
522 -> 523 ;
524 [label="studytime <= 0.2\nmse = 1.1\nsamples = 2\nvalue = 7.6"] ;
523 -> 524 ;
525 [label="mse = 0.0\nsamples = 1\nvalue = 8.7"] ;
524 -> 525 ;
526 [label="mse = -0.0\nsamples = 1\nvalue = 6.6"] ;
524 -> 526 ;
527 [label="activities <= 0.5\nmse = 1.2\nsamples = 6\nvalue = 2.7"] ;
523 -> 527 ;
528 [label="failures <= 2.0\nmse = 0.2\nsamples = 3\nvalue = 1.5"] ;
527 -> 528 ;
529 [label="Mjob <= 1.0\nmse = 0.0\nsamples = 2\nvalue = 1.7"] ;
528 -> 529 ;
530 [label="mse = -0.0\nsamples = 1\nvalue = 1.6"] ;
529 -> 530 ;
531 [label="mse = 0.0\nsamples = 1\nvalue = 1.8"] ;
529 -> 531 ;
532 [label="mse = -0.0\nsamples = 1\nvalue = 0.6"] ;
528 -> 532 ;
533 [label="health <= 2.5\nmse = 0.1\nsamples = 3\nvalue = 3.6"] ;
527 -> 533 ;
534 [label="mse = 0.0\nsamples = 1\nvalue = 3.4"] ;
533 -> 534 ;
535 [label="course <= 2.5\nmse = 0.0\nsamples = 2\nvalue = 3.9"] ;
533 -> 535 ;
536 [label="mse = 0.0\nsamples = 1\nvalue = 4.0"] ;
535 -> 536 ;
537 [label="mse = -0.0\nsamples = 1\nvalue = 3.8"] ;
535 -> 537 ;
538 [label="G1 <= 8.1\nmse = 2.3\nsamples = 14\nvalue = 6.0"] ;
522 -> 538 ;
539 [label="G2 <= 7.7\nmse = 0.9\nsamples = 10\nvalue = 6.6"] ;
538 -> 539 ;
540 [label="reason <= 2.5\nmse = 0.2\nsamples = 5\nvalue = 7.7"] ;
539 -> 540 ;
541 [label="Walc <= 3.5\nmse = 0.1\nsamples = 4\nvalue = 7.5"] ;
540 -> 541 ;
542 [label="school <= 3.5\nmse = 0.0\nsamples = 3\nvalue = 7.6"] ;
541 -> 542 ;
543 [label="mse = 0.0\nsamples = 1\nvalue = 7.4"] ;
542 -> 543 ;
544 [label="absences <= 1.9\nmse = 0.0\nsamples = 2\nvalue = 7.7"] ;
542 -> 544 ;
545 [label="mse = 0.0\nsamples = 1\nvalue = 7.6"] ;
544 -> 545 ;
546 [label="mse = -0.0\nsamples = 1\nvalue = 7.8"] ;
544 -> 546 ;
547 [label="mse = 0.0\nsamples = 1\nvalue = 7.0"] ;
541 -> 547 ;
548 [label="mse = -0.0\nsamples = 1\nvalue = 8.6"] ;
540 -> 548 ;
549 [label="Fedu <= 3.5\nmse = 0.3\nsamples = 5\nvalue = 6.0"] ;
539 -> 549 ;
550 [label="traveltime <= 0.5\nmse = 0.1\nsamples = 4\nvalue = 6.2"] ;
549 -> 550 ;
551 [label="Fedu <= 2.5\nmse = 0.0\nsamples = 2\nvalue = 6.5"] ;
550 -> 551 ;
552 [label="mse = 0.0\nsamples = 1\nvalue = 6.6"] ;
551 -> 552 ;
553 [label="mse = -0.0\nsamples = 1\nvalue = 6.3"] ;
551 -> 553 ;
554 [label="higher <= 0.5\nmse = 0.0\nsamples = 2\nvalue = 5.9"] ;
550 -> 554 ;
555 [label="mse = 0.0\nsamples = 1\nvalue = 6.0"] ;
554 -> 555 ;
556 [label="mse = -0.0\nsamples = 1\nvalue = 5.8"] ;
554 -> 556 ;
557 [label="mse = 0.0\nsamples = 1\nvalue = 4.7"] ;
549 -> 557 ;
558 [label="G2 <= 6.4\nmse = 2.2\nsamples = 4\nvalue = 4.6"] ;
538 -> 558 ;
559 [label="mse = 0.0\nsamples = 1\nvalue = 1.1"] ;
558 -> 559 ;
560 [label="freetime <= 1.5\nmse = 0.5\nsamples = 3\nvalue = 5.1"] ;
558 -> 560 ;
561 [label="mse = 0.0\nsamples = 1\nvalue = 4.1"] ;
560 -> 561 ;
562 [label="famrel <= 3.5\nmse = 0.2\nsamples = 2\nvalue = 5.5"] ;
560 -> 562 ;
563 [label="mse = -0.0\nsamples = 1\nvalue = 5.8"] ;
562 -> 563 ;
564 [label="mse = 0.0\nsamples = 1\nvalue = 5.0"] ;
562 -> 564 ;
565 [label="reason <= 1.5\nmse = 1.0\nsamples = 8\nvalue = 1.8"] ;
487 -> 565 ;
566 [label="absences <= 8.9\nmse = 0.2\nsamples = 4\nvalue = 1.0"] ;
565 -> 566 ;
567 [label="reason <= 0.5\nmse = 0.0\nsamples = 2\nvalue = 0.7"] ;
566 -> 567 ;
568 [label="mse = 0.0\nsamples = 1\nvalue = 0.6"] ;
567 -> 568 ;
569 [label="mse = 0.0\nsamples = 1\nvalue = 0.7"] ;
567 -> 569 ;
570 [label="mse = 0.0\nsamples = 2\nvalue = 1.6"] ;
566 -> 570 ;
571 [label="course <= 0.5\nmse = 0.4\nsamples = 4\nvalue = 2.6"] ;
565 -> 571 ;
572 [label="age <= 16.0\nmse = 0.2\nsamples = 2\nvalue = 2.1"] ;
571 -> 572 ;
573 [label="mse = 0.0\nsamples = 1\nvalue = 2.5"] ;
572 -> 573 ;
574 [label="mse = 0.0\nsamples = 1\nvalue = 1.7"] ;
572 -> 574 ;
575 [label="address <= 0.5\nmse = 0.1\nsamples = 2\nvalue = 3.2"] ;
571 -> 575 ;
576 [label="mse = 0.0\nsamples = 1\nvalue = 3.5"] ;
575 -> 576 ;
577 [label="mse = -0.0\nsamples = 1\nvalue = 2.9"] ;
575 -> 577 ;
578 [label="goout <= 0.5\nmse = 6.7\nsamples = 21\nvalue = 5.8"] ;
394 -> 578 ;
579 [label="famrel <= 1.5\nmse = 4.0\nsamples = 5\nvalue = 3.1"] ;
578 -> 579 ;
580 [label="health <= 2.0\nmse = 0.1\nsamples = 2\nvalue = 5.2"] ;
579 -> 580 ;
581 [label="mse = 0.0\nsamples = 1\nvalue = 5.5"] ;
580 -> 581 ;
582 [label="mse = 0.0\nsamples = 1\nvalue = 5.0"] ;
580 -> 582 ;
583 [label="age <= 17.0\nmse = 0.2\nsamples = 3\nvalue = 1.3"] ;
579 -> 583 ;
584 [label="mse = 0.0\nsamples = 1\nvalue = 0.5"] ;
583 -> 584 ;
585 [label="Medu <= 1.0\nmse = 0.0\nsamples = 2\nvalue = 1.5"] ;
583 -> 585 ;
586 [label="mse = 0.0\nsamples = 1\nvalue = 1.2"] ;
585 -> 586 ;
587 [label="mse = -0.0\nsamples = 1\nvalue = 1.6"] ;
585 -> 587 ;
588 [label="traveltime <= 3.6\nmse = 3.5\nsamples = 16\nvalue = 6.9"] ;
578 -> 588 ;
589 [label="failures <= 0.5\nmse = 2.1\nsamples = 15\nvalue = 7.2"] ;
588 -> 589 ;
590 [label="G1 <= 5.7\nmse = 1.1\nsamples = 10\nvalue = 7.9"] ;
589 -> 590 ;
591 [label="G1 <= 2.1\nmse = 0.2\nsamples = 4\nvalue = 9.0"] ;
590 -> 591 ;
592 [label="mse = 0.0\nsamples = 1\nvalue = 8.4"] ;
591 -> 592 ;
593 [label="reason <= 1.0\nmse = 0.0\nsamples = 3\nvalue = 9.2"] ;
591 -> 593 ;
594 [label="mse = 0.0\nsamples = 1\nvalue = 9.3"] ;
593 -> 594 ;
595 [label="mse = 0.0\nsamples = 2\nvalue = 9.2"] ;
593 -> 595 ;
596 [label="age <= 15.5\nmse = 0.4\nsamples = 6\nvalue = 7.1"] ;
590 -> 596 ;
597 [label="reason <= 1.0\nmse = 0.1\nsamples = 2\nvalue = 6.1"] ;
596 -> 597 ;
598 [label="mse = 0.0\nsamples = 1\nvalue = 6.4"] ;
597 -> 598 ;
599 [label="mse = 0.0\nsamples = 1\nvalue = 5.8"] ;
597 -> 599 ;
600 [label="health <= 2.5\nmse = 0.0\nsamples = 4\nvalue = 7.4"] ;
596 -> 600 ;
601 [label="mse = 0.0\nsamples = 1\nvalue = 7.9"] ;
600 -> 601 ;
602 [label="freetime <= 4.5\nmse = 0.0\nsamples = 3\nvalue = 7.4"] ;
600 -> 602 ;
603 [label="mse = -0.0\nsamples = 2\nvalue = 7.3"] ;
602 -> 603 ;
604 [label="mse = 0.0\nsamples = 1\nvalue = 7.5"] ;
602 -> 604 ;
605 [label="reason <= 2.5\nmse = 1.3\nsamples = 5\nvalue = 5.7"] ;
589 -> 605 ;
606 [label="activities <= 0.5\nmse = 0.1\nsamples = 3\nvalue = 6.4"] ;
605 -> 606 ;
607 [label="mse = 0.0\nsamples = 1\nvalue = 6.0"] ;
606 -> 607 ;
608 [label="studytime <= 0.5\nmse = 0.0\nsamples = 2\nvalue = 6.6"] ;
606 -> 608 ;
609 [label="mse = 0.0\nsamples = 1\nvalue = 6.7"] ;
608 -> 609 ;
610 [label="mse = 0.0\nsamples = 1\nvalue = 6.6"] ;
608 -> 610 ;
611 [label="G1 <= 5.7\nmse = 0.7\nsamples = 2\nvalue = 4.2"] ;
605 -> 611 ;
612 [label="mse = 0.0\nsamples = 1\nvalue = 3.3"] ;
611 -> 612 ;
613 [label="mse = -0.0\nsamples = 1\nvalue = 5.0"] ;
611 -> 613 ;
614 [label="mse = -0.0\nsamples = 1\nvalue = 1.2"] ;
588 -> 614 ;
615 [label="goout <= 0.5\nmse = 8.0\nsamples = 45\nvalue = 5.7"] ;
245 -> 615 ;
616 [label="reason <= 2.0\nmse = 9.3\nsamples = 9\nvalue = 3.4"] ;
615 -> 616 ;
617 [label="Mjob <= 0.5\nmse = 1.4\nsamples = 5\nvalue = 1.5"] ;
616 -> 617 ;
618 [label="mse = 0.0\nsamples = 1\nvalue = 4.1"] ;
617 -> 618 ;
619 [label="course <= 4.5\nmse = 0.3\nsamples = 4\nvalue = 1.0"] ;
617 -> 619 ;
620 [label="studytime <= 1.8\nmse = 0.0\nsamples = 2\nvalue = 1.6"] ;
619 -> 620 ;
621 [label="mse = 0.0\nsamples = 1\nvalue = 1.5"] ;
620 -> 621 ;
622 [label="mse = -0.0\nsamples = 1\nvalue = 1.7"] ;
620 -> 622 ;
623 [label="address <= 0.5\nmse = 0.0\nsamples = 2\nvalue = 0.5"] ;
619 -> 623 ;
624 [label="mse = 0.0\nsamples = 1\nvalue = 0.4"] ;
623 -> 624 ;
625 [label="mse = 0.0\nsamples = 1\nvalue = 0.7"] ;
623 -> 625 ;
626 [label="G2 <= 6.4\nmse = 5.6\nsamples = 4\nvalue = 6.7"] ;
616 -> 626 ;
627 [label="mse = 0.0\nsamples = 2\nvalue = 9.1"] ;
626 -> 627 ;
628 [label="course <= 3.5\nmse = 0.0\nsamples = 2\nvalue = 4.4"] ;
626 -> 628 ;
629 [label="mse = 0.0\nsamples = 1\nvalue = 4.4"] ;
628 -> 629 ;
630 [label="mse = 0.0\nsamples = 1\nvalue = 4.3"] ;
628 -> 630 ;
631 [label="course <= 2.5\nmse = 6.3\nsamples = 36\nvalue = 6.2"] ;
615 -> 631 ;
632 [label="school <= 3.0\nmse = 5.9\nsamples = 12\nvalue = 4.9"] ;
631 -> 632 ;
633 [label="course <= 1.5\nmse = 2.0\nsamples = 4\nvalue = 1.8"] ;
632 -> 633 ;
634 [label="mse = 0.0\nsamples = 1\nvalue = 0.1"] ;
633 -> 634 ;
635 [label="romantic <= 0.5\nmse = 0.1\nsamples = 3\nvalue = 3.0"] ;
633 -> 635 ;
636 [label="mse = 0.0\nsamples = 1\nvalue = 3.3"] ;
635 -> 636 ;
637 [label="mse = 0.0\nsamples = 2\nvalue = 2.8"] ;
635 -> 637 ;
638 [label="Dalc <= 4.0\nmse = 2.1\nsamples = 8\nvalue = 6.1"] ;
632 -> 638 ;
639 [label="Medu <= 1.5\nmse = 1.1\nsamples = 5\nvalue = 5.4"] ;
638 -> 639 ;
640 [label="G2 <= 8.5\nmse = 0.5\nsamples = 2\nvalue = 3.7"] ;
639 -> 640 ;
641 [label="mse = 0.0\nsamples = 1\nvalue = 3.0"] ;
640 -> 641 ;
642 [label="mse = 0.0\nsamples = 1\nvalue = 4.4"] ;
640 -> 642 ;
643 [label="Fjob <= 3.0\nmse = 0.2\nsamples = 3\nvalue = 5.9"] ;
639 -> 643 ;
644 [label="studytime <= 2.0\nmse = 0.1\nsamples = 2\nvalue = 5.5"] ;
643 -> 644 ;
645 [label="mse = 0.0\nsamples = 1\nvalue = 5.0"] ;
644 -> 645 ;
646 [label="mse = 0.0\nsamples = 1\nvalue = 5.7"] ;
644 -> 646 ;
647 [label="mse = 0.0\nsamples = 1\nvalue = 6.3"] ;
643 -> 647 ;
648 [label="school <= 5.0\nmse = 0.2\nsamples = 3\nvalue = 7.9"] ;
638 -> 648 ;
649 [label="G2 <= 5.4\nmse = 0.1\nsamples = 2\nvalue = 8.1"] ;
648 -> 649 ;
650 [label="mse = 0.0\nsamples = 1\nvalue = 7.9"] ;
649 -> 650 ;
651 [label="mse = -0.0\nsamples = 1\nvalue = 8.5"] ;
649 -> 651 ;
652 [label="mse = 0.0\nsamples = 1\nvalue = 7.2"] ;
648 -> 652 ;
653 [label="health <= 1.5\nmse = 5.1\nsamples = 24\nvalue = 6.9"] ;
631 -> 653 ;
654 [label="famrel <= 2.0\nmse = 0.1\nsamples = 3\nvalue = 9.2"] ;
653 -> 654 ;
655 [label="mse = 0.0\nsamples = 1\nvalue = 8.8"] ;
654 -> 655 ;
656 [label="Fedu <= 2.5\nmse = 0.0\nsamples = 2\nvalue = 9.5"] ;
654 -> 656 ;
657 [label="mse = 0.0\nsamples = 1\nvalue = 9.3"] ;
656 -> 657 ;
658 [label="mse = 0.0\nsamples = 1\nvalue = 9.5"] ;
656 -> 658 ;
659 [label="Medu <= 2.5\nmse = 4.5\nsamples = 21\nvalue = 6.2"] ;
653 -> 659 ;
660 [label="school <= 0.5\nmse = 1.8\nsamples = 10\nvalue = 7.5"] ;
659 -> 660 ;
661 [label="Fedu <= 1.5\nmse = 0.5\nsamples = 5\nvalue = 6.2"] ;
660 -> 661 ;
662 [label="age <= 17.5\nmse = 0.0\nsamples = 2\nvalue = 5.4"] ;
661 -> 662 ;
663 [label="mse = 0.0\nsamples = 1\nvalue = 5.6"] ;
662 -> 663 ;
664 [label="mse = -0.0\nsamples = 1\nvalue = 5.2"] ;
662 -> 664 ;
665 [label="schoolsup <= 0.5\nmse = 0.1\nsamples = 3\nvalue = 6.8"] ;
661 -> 665 ;
666 [label="mse = 0.0\nsamples = 1\nvalue = 7.2"] ;
665 -> 666 ;
667 [label="Walc <= 3.5\nmse = 0.0\nsamples = 2\nvalue = 6.6"] ;
665 -> 667 ;
668 [label="mse = 0.0\nsamples = 1\nvalue = 6.7"] ;
667 -> 668 ;
669 [label="mse = -0.0\nsamples = 1\nvalue = 6.4"] ;
667 -> 669 ;
670 [label="famrel <= 2.5\nmse = 0.5\nsamples = 5\nvalue = 8.5"] ;
660 -> 670 ;
671 [label="guardian <= 1.5\nmse = 0.0\nsamples = 2\nvalue = 8.0"] ;
670 -> 671 ;
672 [label="mse = 0.0\nsamples = 1\nvalue = 8.1"] ;
671 -> 672 ;
673 [label="mse = 0.0\nsamples = 1\nvalue = 7.8"] ;
671 -> 673 ;
674 [label="traveltime <= 3.3\nmse = 0.3\nsamples = 3\nvalue = 9.2"] ;
670 -> 674 ;
675 [label="studytime <= 1.8\nmse = 0.0\nsamples = 2\nvalue = 8.8"] ;
674 -> 675 ;
676 [label="mse = 0.0\nsamples = 1\nvalue = 8.9"] ;
675 -> 676 ;
677 [label="mse = -0.0\nsamples = 1\nvalue = 8.7"] ;
675 -> 677 ;
678 [label="mse = 0.0\nsamples = 1\nvalue = 10.0"] ;
674 -> 678 ;
679 [label="studytime <= 2.0\nmse = 4.0\nsamples = 11\nvalue = 5.0"] ;
659 -> 679 ;
680 [label="course <= 3.5\nmse = 2.1\nsamples = 9\nvalue = 5.6"] ;
679 -> 680 ;
681 [label="failures <= 1.5\nmse = 0.4\nsamples = 2\nvalue = 7.6"] ;
680 -> 681 ;
682 [label="mse = 0.0\nsamples = 1\nvalue = 8.3"] ;
681 -> 682 ;
683 [label="mse = 0.0\nsamples = 1\nvalue = 7.0"] ;
681 -> 683 ;
684 [label="school <= 4.5\nmse = 1.3\nsamples = 7\nvalue = 5.2"] ;
680 -> 684 ;
685 [label="freetime <= 3.0\nmse = 0.5\nsamples = 4\nvalue = 4.3"] ;
684 -> 685 ;
686 [label="mse = 0.0\nsamples = 1\nvalue = 5.5"] ;
685 -> 686 ;
687 [label="romantic <= 0.5\nmse = 0.2\nsamples = 3\nvalue = 4.0"] ;
685 -> 687 ;
688 [label="mse = 0.0\nsamples = 1\nvalue = 3.2"] ;
687 -> 688 ;
689 [label="course <= 5.0\nmse = 0.0\nsamples = 2\nvalue = 4.3"] ;
687 -> 689 ;
690 [label="mse = 0.0\nsamples = 1\nvalue = 4.1"] ;
689 -> 690 ;
691 [label="mse = -0.0\nsamples = 1\nvalue = 4.4"] ;
689 -> 691 ;
692 [label="school <= 5.5\nmse = 0.3\nsamples = 3\nvalue = 6.2"] ;
684 -> 692 ;
693 [label="mse = 0.0\nsamples = 1\nvalue = 6.7"] ;
692 -> 693 ;
694 [label="G2 <= 4.7\nmse = 0.0\nsamples = 2\nvalue = 5.7"] ;
692 -> 694 ;
695 [label="mse = 0.0\nsamples = 1\nvalue = 5.9"] ;
694 -> 695 ;
696 [label="mse = 0.0\nsamples = 1\nvalue = 5.5"] ;
694 -> 696 ;
697 [label="school <= 1.5\nmse = 0.8\nsamples = 2\nvalue = 1.6"] ;
679 -> 697 ;
698 [label="mse = 0.0\nsamples = 1\nvalue = 2.5"] ;
697 -> 698 ;
699 [label="mse = -0.0\nsamples = 1\nvalue = 0.7"] ;
697 -> 699 ;
700 [label="absences <= 0.1\nmse = 8.1\nsamples = 46\nvalue = 6.2"] ;
244 -> 700 ;
701 [label="mse = 0.0\nsamples = 1\nvalue = 1.1"] ;
700 -> 701 ;
702 [label="school <= 1.5\nmse = 7.4\nsamples = 45\nvalue = 6.4"] ;
700 -> 702 ;
703 [label="activities <= 0.5\nmse = 4.8\nsamples = 14\nvalue = 7.8"] ;
702 -> 703 ;
704 [label="goout <= 1.5\nmse = 1.2\nsamples = 7\nvalue = 8.8"] ;
703 -> 704 ;
705 [label="age <= 16.0\nmse = 0.1\nsamples = 3\nvalue = 7.2"] ;
704 -> 705 ;
706 [label="mse = 0.0\nsamples = 1\nvalue = 6.8"] ;
705 -> 706 ;
707 [label="guardian <= 0.5\nmse = 0.0\nsamples = 2\nvalue = 7.5"] ;
705 -> 707 ;
708 [label="mse = 0.0\nsamples = 1\nvalue = 7.3"] ;
707 -> 708 ;
709 [label="mse = 0.0\nsamples = 1\nvalue = 7.7"] ;
707 -> 709 ;
710 [label="reason <= 1.5\nmse = 0.2\nsamples = 4\nvalue = 9.4"] ;
704 -> 710 ;
711 [label="mse = 0.0\nsamples = 1\nvalue = 8.7"] ;
710 -> 711 ;
712 [label="course <= 1.0\nmse = 0.0\nsamples = 3\nvalue = 9.7"] ;
710 -> 712 ;
713 [label="mse = 0.0\nsamples = 1\nvalue = 9.9"] ;
712 -> 713 ;
714 [label="health <= 4.0\nmse = 0.0\nsamples = 2\nvalue = 9.6"] ;
712 -> 714 ;
715 [label="mse = 0.0\nsamples = 1\nvalue = 9.5"] ;
714 -> 715 ;
716 [label="mse = 0.0\nsamples = 1\nvalue = 9.7"] ;
714 -> 716 ;
717 [label="guardian <= 1.5\nmse = 6.0\nsamples = 7\nvalue = 6.1"] ;
703 -> 717 ;
718 [label="failures <= 1.5\nmse = 0.9\nsamples = 2\nvalue = 2.8"] ;
717 -> 718 ;
719 [label="mse = 0.0\nsamples = 1\nvalue = 1.5"] ;
718 -> 719 ;
720 [label="mse = 0.0\nsamples = 1\nvalue = 3.5"] ;
718 -> 720 ;
721 [label="Fjob <= 3.5\nmse = 1.7\nsamples = 5\nvalue = 7.5"] ;
717 -> 721 ;
722 [label="Dalc <= 3.5\nmse = 0.7\nsamples = 3\nvalue = 6.6"] ;
721 -> 722 ;
723 [label="famsup <= 0.5\nmse = 0.0\nsamples = 2\nvalue = 7.0"] ;
722 -> 723 ;
724 [label="mse = 0.0\nsamples = 1\nvalue = 7.1"] ;
723 -> 724 ;
725 [label="mse = -0.0\nsamples = 1\nvalue = 7.0"] ;
723 -> 725 ;
726 [label="mse = -0.0\nsamples = 1\nvalue = 5.1"] ;
722 -> 726 ;
727 [label="freetime <= 3.5\nmse = 0.1\nsamples = 2\nvalue = 8.8"] ;
721 -> 727 ;
728 [label="mse = 0.0\nsamples = 1\nvalue = 8.4"] ;
727 -> 728 ;
729 [label="mse = 0.0\nsamples = 1\nvalue = 9.0"] ;
727 -> 729 ;
730 [label="studytime <= 0.9\nmse = 7.2\nsamples = 31\nvalue = 5.7"] ;
702 -> 730 ;
731 [label="studytime <= 0.1\nmse = 3.1\nsamples = 10\nvalue = 3.8"] ;
730 -> 731 ;
732 [label="mse = 0.0\nsamples = 1\nvalue = 10.0"] ;
731 -> 732 ;
733 [label="Medu <= 3.5\nmse = 0.8\nsamples = 9\nvalue = 3.4"] ;
731 -> 733 ;
734 [label="G1 <= 4.3\nmse = 0.2\nsamples = 8\nvalue = 3.6"] ;
733 -> 734 ;
735 [label="Fjob <= 0.5\nmse = 0.1\nsamples = 4\nvalue = 3.0"] ;
734 -> 735 ;
736 [label="mse = 0.0\nsamples = 1\nvalue = 3.6"] ;
735 -> 736 ;
737 [label="absences <= 0.2\nmse = 0.0\nsamples = 3\nvalue = 2.9"] ;
735 -> 737 ;
738 [label="mse = 0.0\nsamples = 1\nvalue = 2.8"] ;
737 -> 738 ;
739 [label="mse = 0.0\nsamples = 2\nvalue = 2.9"] ;
737 -> 739 ;
740 [label="G1 <= 7.4\nmse = 0.1\nsamples = 4\nvalue = 3.9"] ;
734 -> 740 ;
741 [label="G2 <= 4.7\nmse = 0.0\nsamples = 2\nvalue = 4.2"] ;
740 -> 741 ;
742 [label="mse = 0.0\nsamples = 1\nvalue = 4.0"] ;
741 -> 742 ;
743 [label="mse = -0.0\nsamples = 1\nvalue = 4.4"] ;
741 -> 743 ;
744 [label="mse = -0.0\nsamples = 2\nvalue = 3.6"] ;
740 -> 744 ;
745 [label="mse = 0.0\nsamples = 1\nvalue = 0.5"] ;
733 -> 745 ;
746 [label="studytime <= 2.0\nmse = 6.6\nsamples = 21\nvalue = 6.7"] ;
730 -> 746 ;
747 [label="studytime <= 1.8\nmse = 5.0\nsamples = 18\nvalue = 7.1"] ;
746 -> 747 ;
748 [label="studytime <= 1.3\nmse = 5.1\nsamples = 15\nvalue = 6.5"] ;
747 -> 748 ;
749 [label="course <= 2.5\nmse = 0.9\nsamples = 6\nvalue = 8.3"] ;
748 -> 749 ;
750 [label="mse = 0.0\nsamples = 1\nvalue = 6.9"] ;
749 -> 750 ;
751 [label="higher <= 0.5\nmse = 0.3\nsamples = 5\nvalue = 8.8"] ;
749 -> 751 ;
752 [label="goout <= 0.5\nmse = 0.1\nsamples = 3\nvalue = 9.4"] ;
751 -> 752 ;
753 [label="mse = 0.0\nsamples = 1\nvalue = 9.8"] ;
752 -> 753 ;
754 [label="famrel <= 3.0\nmse = 0.0\nsamples = 2\nvalue = 9.2"] ;
752 -> 754 ;
755 [label="mse = 0.0\nsamples = 1\nvalue = 9.1"] ;
754 -> 755 ;
756 [label="mse = 0.0\nsamples = 1\nvalue = 9.4"] ;
754 -> 756 ;
757 [label="health <= 3.0\nmse = 0.0\nsamples = 2\nvalue = 8.4"] ;
751 -> 757 ;
758 [label="mse = 0.0\nsamples = 1\nvalue = 8.3"] ;
757 -> 758 ;
759 [label="mse = -0.0\nsamples = 1\nvalue = 8.6"] ;
757 -> 759 ;
760 [label="famsup <= 0.5\nmse = 3.0\nsamples = 9\nvalue = 4.7"] ;
748 -> 760 ;
761 [label="Fedu <= 2.0\nmse = 0.1\nsamples = 2\nvalue = 1.9"] ;
760 -> 761 ;
762 [label="mse = 0.0\nsamples = 1\nvalue = 1.6"] ;
761 -> 762 ;
763 [label="mse = 0.0\nsamples = 1\nvalue = 2.2"] ;
761 -> 763 ;
764 [label="Medu <= 3.5\nmse = 1.5\nsamples = 7\nvalue = 5.4"] ;
760 -> 764 ;
765 [label="age <= 17.5\nmse = 0.6\nsamples = 6\nvalue = 5.0"] ;
764 -> 765 ;
766 [label="freetime <= 1.5\nmse = 0.3\nsamples = 4\nvalue = 4.6"] ;
765 -> 766 ;
767 [label="mse = 0.0\nsamples = 1\nvalue = 3.4"] ;
766 -> 767 ;
768 [label="famsize <= 6.0\nmse = 0.0\nsamples = 3\nvalue = 4.9"] ;
766 -> 768 ;
769 [label="G1 <= 6.2\nmse = 0.0\nsamples = 2\nvalue = 4.8"] ;
768 -> 769 ;
770 [label="mse = 0.0\nsamples = 1\nvalue = 4.8"] ;
769 -> 770 ;
771 [label="mse = 0.0\nsamples = 1\nvalue = 4.7"] ;
769 -> 771 ;
772 [label="mse = 0.0\nsamples = 1\nvalue = 5.0"] ;
768 -> 772 ;
773 [label="studytime <= 1.6\nmse = 0.0\nsamples = 2\nvalue = 6.1"] ;
765 -> 773 ;
774 [label="mse = 0.0\nsamples = 1\nvalue = 6.2"] ;
773 -> 774 ;
775 [label="mse = 0.0\nsamples = 1\nvalue = 6.0"] ;
773 -> 775 ;
776 [label="mse = -0.0\nsamples = 1\nvalue = 8.1"] ;
764 -> 776 ;
777 [label="traveltime <= 1.4\nmse = 0.2\nsamples = 3\nvalue = 9.0"] ;
747 -> 777 ;
778 [label="mse = 0.0\nsamples = 1\nvalue = 8.6"] ;
777 -> 778 ;
779 [label="Fedu <= 2.0\nmse = 0.1\nsamples = 2\nvalue = 9.5"] ;
777 -> 779 ;
780 [label="mse = 0.0\nsamples = 1\nvalue = 9.2"] ;
779 -> 780 ;
781 [label="mse = 0.0\nsamples = 1\nvalue = 10.0"] ;
779 -> 781 ;
782 [label="Fjob <= 1.5\nmse = 1.6\nsamples = 3\nvalue = 2.4"] ;
746 -> 782 ;
783 [label="mse = 0.0\nsamples = 1\nvalue = 4.2"] ;
782 -> 783 ;
784 [label="Mjob <= 3.5\nmse = 0.1\nsamples = 2\nvalue = 1.5"] ;
782 -> 784 ;
785 [label="mse = 0.0\nsamples = 1\nvalue = 1.9"] ;
784 -> 785 ;
786 [label="mse = 0.0\nsamples = 1\nvalue = 1.2"] ;
784 -> 786 ;
787 [label="absences <= 5.1\nmse = 8.0\nsamples = 182\nvalue = 5.8"] ;
243 -> 787 ;
788 [label="absences <= 3.1\nmse = 8.1\nsamples = 139\nvalue = 5.5"] ;
787 -> 788 ;
789 [label="G1 <= 7.9\nmse = 7.3\nsamples = 126\nvalue = 5.8"] ;
788 -> 789 ;
790 [label="studytime <= 0.5\nmse = 6.8\nsamples = 97\nvalue = 5.3"] ;
789 -> 790 ;
791 [label="Medu <= 3.5\nmse = 4.5\nsamples = 23\nvalue = 3.9"] ;
790 -> 791 ;
792 [label="G1 <= 0.9\nmse = 3.0\nsamples = 17\nvalue = 3.3"] ;
791 -> 792 ;
793 [label="mse = 0.0\nsamples = 1\nvalue = 8.0"] ;
792 -> 793 ;
794 [label="Medu <= 2.5\nmse = 2.1\nsamples = 16\nvalue = 3.1"] ;
792 -> 794 ;
795 [label="Fedu <= 0.5\nmse = 1.2\nsamples = 12\nvalue = 2.7"] ;
794 -> 795 ;
796 [label="freetime <= 3.5\nmse = 0.9\nsamples = 5\nvalue = 1.9"] ;
795 -> 796 ;
797 [label="G2 <= 4.2\nmse = 0.1\nsamples = 3\nvalue = 2.6"] ;
796 -> 797 ;
798 [label="higher <= 0.5\nmse = 0.0\nsamples = 2\nvalue = 2.8"] ;
797 -> 798 ;
799 [label="mse = 0.0\nsamples = 1\nvalue = 2.9"] ;
798 -> 799 ;
800 [label="mse = -0.0\nsamples = 1\nvalue = 2.7"] ;
798 -> 800 ;
801 [label="mse = -0.0\nsamples = 1\nvalue = 1.9"] ;
797 -> 801 ;
802 [label="schoolsup <= 0.5\nmse = 0.3\nsamples = 2\nvalue = 0.8"] ;
796 -> 802 ;
803 [label="mse = 0.0\nsamples = 1\nvalue = 1.2"] ;
802 -> 803 ;
804 [label="mse = -0.0\nsamples = 1\nvalue = 0.1"] ;
802 -> 804 ;
805 [label="traveltime <= 0.3\nmse = 0.5\nsamples = 7\nvalue = 3.3"] ;
795 -> 805 ;
806 [label="mse = 0.0\nsamples = 1\nvalue = 1.5"] ;
805 -> 806 ;
807 [label="Walc <= 3.5\nmse = 0.2\nsamples = 6\nvalue = 3.5"] ;
805 -> 807 ;
808 [label="Dalc <= 1.5\nmse = 0.0\nsamples = 2\nvalue = 4.4"] ;
807 -> 808 ;
809 [label="mse = 0.0\nsamples = 1\nvalue = 4.5"] ;
808 -> 809 ;
810 [label="mse = -0.0\nsamples = 1\nvalue = 4.4"] ;
808 -> 810 ;
811 [label="traveltime <= 1.5\nmse = 0.0\nsamples = 4\nvalue = 3.3"] ;
807 -> 811 ;
812 [label="mse = 0.0\nsamples = 2\nvalue = 3.2"] ;
811 -> 812 ;
813 [label="mse = 0.0\nsamples = 2\nvalue = 3.4"] ;
811 -> 813 ;
814 [label="studytime <= 0.2\nmse = 3.3\nsamples = 4\nvalue = 4.5"] ;
794 -> 814 ;
815 [label="famrel <= 2.0\nmse = 0.3\nsamples = 2\nvalue = 6.6"] ;
814 -> 815 ;
816 [label="mse = 0.0\nsamples = 1\nvalue = 6.1"] ;
815 -> 816 ;
817 [label="mse = -0.0\nsamples = 1\nvalue = 7.2"] ;
815 -> 817 ;
818 [label="studytime <= 0.4\nmse = 0.3\nsamples = 2\nvalue = 3.1"] ;
814 -> 818 ;
819 [label="mse = 0.0\nsamples = 1\nvalue = 3.5"] ;
818 -> 819 ;
820 [label="mse = -0.0\nsamples = 1\nvalue = 2.4"] ;
818 -> 820 ;
821 [label="age <= 17.0\nmse = 3.2\nsamples = 6\nvalue = 6.4"] ;
791 -> 821 ;
822 [label="Fedu <= 2.5\nmse = 1.0\nsamples = 3\nvalue = 7.9"] ;
821 -> 822 ;
823 [label="Fjob <= 1.0\nmse = 0.0\nsamples = 2\nvalue = 7.2"] ;
822 -> 823 ;
824 [label="mse = 0.0\nsamples = 1\nvalue = 7.3"] ;
823 -> 824 ;
825 [label="mse = -0.0\nsamples = 1\nvalue = 7.0"] ;
823 -> 825 ;
826 [label="mse = 0.0\nsamples = 1\nvalue = 9.3"] ;
822 -> 826 ;
827 [label="course <= 2.0\nmse = 1.3\nsamples = 3\nvalue = 5.0"] ;
821 -> 827 ;
828 [label="freetime <= 2.5\nmse = 0.0\nsamples = 2\nvalue = 5.8"] ;
827 -> 828 ;
829 [label="mse = 0.0\nsamples = 1\nvalue = 6.0"] ;
828 -> 829 ;
830 [label="mse = 0.0\nsamples = 1\nvalue = 5.7"] ;
828 -> 830 ;
831 [label="mse = -0.0\nsamples = 1\nvalue = 3.4"] ;
827 -> 831 ;
832 [label="G2 <= 6.1\nmse = 6.7\nsamples = 74\nvalue = 5.7"] ;
790 -> 832 ;
833 [label="higher <= 0.5\nmse = 6.7\nsamples = 47\nvalue = 5.2"] ;
832 -> 833 ;
834 [label="Fjob <= 3.5\nmse = 7.1\nsamples = 21\nvalue = 6.4"] ;
833 -> 834 ;
835 [label="reason <= 2.5\nmse = 5.0\nsamples = 16\nvalue = 7.2"] ;
834 -> 835 ;
836 [label="studytime <= 1.7\nmse = 3.7\nsamples = 11\nvalue = 7.8"] ;
835 -> 836 ;
837 [label="activities <= 0.5\nmse = 0.5\nsamples = 9\nvalue = 8.5"] ;
836 -> 837 ;
838 [label="famsize <= 8.5\nmse = 0.2\nsamples = 5\nvalue = 9.1"] ;
837 -> 838 ;
839 [label="Medu <= 2.5\nmse = 0.0\nsamples = 2\nvalue = 8.7"] ;
838 -> 839 ;
840 [label="mse = 0.0\nsamples = 1\nvalue = 8.7"] ;
839 -> 840 ;
841 [label="mse = -0.0\nsamples = 1\nvalue = 8.8"] ;
839 -> 841 ;
842 [label="Mjob <= 1.5\nmse = 0.0\nsamples = 3\nvalue = 9.7"] ;
838 -> 842 ;
843 [label="Walc <= 4.5\nmse = 0.0\nsamples = 2\nvalue = 9.6"] ;
842 -> 843 ;
844 [label="mse = 0.0\nsamples = 1\nvalue = 9.6"] ;
843 -> 844 ;
845 [label="mse = 0.0\nsamples = 1\nvalue = 9.7"] ;
843 -> 845 ;
846 [label="mse = -0.0\nsamples = 1\nvalue = 9.8"] ;
842 -> 846 ;
847 [label="goout <= 3.5\nmse = 0.1\nsamples = 4\nvalue = 7.9"] ;
837 -> 847 ;
848 [label="famsize <= 9.0\nmse = 0.1\nsamples = 2\nvalue = 8.2"] ;
847 -> 848 ;
849 [label="mse = 0.0\nsamples = 1\nvalue = 8.0"] ;
848 -> 849 ;
850 [label="mse = 0.0\nsamples = 1\nvalue = 8.5"] ;
848 -> 850 ;
851 [label="G1 <= 1.2\nmse = 0.0\nsamples = 2\nvalue = 7.5"] ;
847 -> 851 ;
852 [label="mse = 0.0\nsamples = 1\nvalue = 7.5"] ;
851 -> 852 ;
853 [label="mse = -0.0\nsamples = 1\nvalue = 7.6"] ;
851 -> 853 ;
854 [label="G1 <= 6.0\nmse = 8.7\nsamples = 2\nvalue = 5.2"] ;
836 -> 854 ;
855 [label="mse = 0.0\nsamples = 1\nvalue = 6.9"] ;
854 -> 855 ;
856 [label="mse = -0.0\nsamples = 1\nvalue = 0.1"] ;
854 -> 856 ;
857 [label="G1 <= 7.1\nmse = 2.1\nsamples = 5\nvalue = 4.7"] ;
835 -> 857 ;
858 [label="goout <= 4.0\nmse = 0.1\nsamples = 4\nvalue = 5.4"] ;
857 -> 858 ;
859 [label="freetime <= 2.5\nmse = 0.0\nsamples = 3\nvalue = 5.1"] ;
858 -> 859 ;
860 [label="mse = 0.0\nsamples = 2\nvalue = 5.1"] ;
859 -> 860 ;
861 [label="mse = 0.0\nsamples = 1\nvalue = 5.0"] ;
859 -> 861 ;
862 [label="mse = -0.0\nsamples = 1\nvalue = 5.8"] ;
858 -> 862 ;
863 [label="mse = -0.0\nsamples = 1\nvalue = 1.6"] ;
857 -> 863 ;
864 [label="Fedu <= 0.5\nmse = 5.6\nsamples = 5\nvalue = 3.7"] ;
834 -> 864 ;
865 [label="mse = 0.0\nsamples = 1\nvalue = 8.4"] ;
864 -> 865 ;
866 [label="famrel <= 1.5\nmse = 2.2\nsamples = 4\nvalue = 2.9"] ;
864 -> 866 ;
867 [label="mse = 0.0\nsamples = 1\nvalue = 6.2"] ;
866 -> 867 ;
868 [label="G1 <= 3.4\nmse = 0.0\nsamples = 3\nvalue = 2.2"] ;
866 -> 868 ;
869 [label="mse = 0.0\nsamples = 1\nvalue = 2.6"] ;
868 -> 869 ;
870 [label="Walc <= 2.5\nmse = 0.0\nsamples = 2\nvalue = 2.2"] ;
868 -> 870 ;
871 [label="mse = 0.0\nsamples = 1\nvalue = 2.1"] ;
870 -> 871 ;
872 [label="mse = -0.0\nsamples = 1\nvalue = 2.3"] ;
870 -> 872 ;
873 [label="traveltime <= 1.8\nmse = 4.4\nsamples = 26\nvalue = 4.2"] ;
833 -> 873 ;
874 [label="Fedu <= 0.5\nmse = 2.6\nsamples = 10\nvalue = 6.1"] ;
873 -> 874 ;
875 [label="mse = 0.0\nsamples = 1\nvalue = 2.9"] ;
874 -> 875 ;
876 [label="G2 <= 1.4\nmse = 1.4\nsamples = 9\nvalue = 6.5"] ;
874 -> 876 ;
877 [label="G2 <= 0.6\nmse = 0.4\nsamples = 4\nvalue = 5.6"] ;
876 -> 877 ;
878 [label="mse = 0.0\nsamples = 1\nvalue = 4.4"] ;
877 -> 878 ;
879 [label="studytime <= 1.2\nmse = 0.2\nsamples = 3\nvalue = 5.8"] ;
877 -> 879 ;
880 [label="mse = 0.0\nsamples = 1\nvalue = 6.4"] ;
879 -> 880 ;
881 [label="schoolsup <= 0.5\nmse = 0.0\nsamples = 2\nvalue = 5.6"] ;
879 -> 881 ;
882 [label="mse = 0.0\nsamples = 1\nvalue = 5.6"] ;
881 -> 882 ;
883 [label="mse = 0.0\nsamples = 1\nvalue = 5.5"] ;
881 -> 883 ;
884 [label="studytime <= 1.6\nmse = 0.8\nsamples = 5\nvalue = 7.4"] ;
876 -> 884 ;
885 [label="school <= 2.0\nmse = 0.1\nsamples = 3\nvalue = 8.4"] ;
884 -> 885 ;
886 [label="mse = 0.0\nsamples = 1\nvalue = 8.8"] ;
885 -> 886 ;
887 [label="reason <= 0.5\nmse = 0.0\nsamples = 2\nvalue = 8.2"] ;
885 -> 887 ;
888 [label="mse = 0.0\nsamples = 1\nvalue = 8.4"] ;
887 -> 888 ;
889 [label="mse = 0.0\nsamples = 1\nvalue = 8.0"] ;
887 -> 889 ;
890 [label="activities <= 0.5\nmse = 0.0\nsamples = 2\nvalue = 6.6"] ;
884 -> 890 ;
891 [label="mse = 0.0\nsamples = 1\nvalue = 6.7"] ;
890 -> 891 ;
892 [label="mse = -0.0\nsamples = 1\nvalue = 6.6"] ;
890 -> 892 ;
893 [label="traveltime <= 2.9\nmse = 2.4\nsamples = 16\nvalue = 3.2"] ;
873 -> 893 ;
894 [label="course <= 4.0\nmse = 0.6\nsamples = 8\nvalue = 2.6"] ;
893 -> 894 ;
895 [label="Dalc <= 2.0\nmse = 0.1\nsamples = 5\nvalue = 3.0"] ;
894 -> 895 ;
896 [label="guardian <= 1.5\nmse = 0.0\nsamples = 2\nvalue = 2.6"] ;
895 -> 896 ;
897 [label="mse = 0.0\nsamples = 1\nvalue = 2.6"] ;
896 -> 897 ;
898 [label="mse = 0.0\nsamples = 1\nvalue = 2.5"] ;
896 -> 898 ;
899 [label="G1 <= 4.0\nmse = 0.0\nsamples = 3\nvalue = 3.3"] ;
895 -> 899 ;
900 [label="mse = 0.0\nsamples = 1\nvalue = 3.1"] ;
899 -> 900 ;
901 [label="mse = 0.0\nsamples = 2\nvalue = 3.3"] ;
899 -> 901 ;
902 [label="famrel <= 2.5\nmse = 0.4\nsamples = 3\nvalue = 1.8"] ;
894 -> 902 ;
903 [label="mse = 0.0\nsamples = 1\nvalue = 2.3"] ;
902 -> 903 ;
904 [label="Dalc <= 4.0\nmse = 0.0\nsamples = 2\nvalue = 1.0"] ;
902 -> 904 ;
905 [label="mse = 0.0\nsamples = 1\nvalue = 1.0"] ;
904 -> 905 ;
906 [label="mse = -0.0\nsamples = 1\nvalue = 1.1"] ;
904 -> 906 ;
907 [label="traveltime <= 3.7\nmse = 3.5\nsamples = 8\nvalue = 4.8"] ;
893 -> 907 ;
908 [label="G1 <= 4.7\nmse = 1.0\nsamples = 6\nvalue = 5.7"] ;
907 -> 908 ;
909 [label="studytime <= 1.4\nmse = 0.4\nsamples = 4\nvalue = 5.2"] ;
908 -> 909 ;
910 [label="famsize <= 9.5\nmse = 0.2\nsamples = 2\nvalue = 5.7"] ;
909 -> 910 ;
911 [label="mse = 0.0\nsamples = 1\nvalue = 5.3"] ;
910 -> 911 ;
912 [label="mse = 0.0\nsamples = 1\nvalue = 6.1"] ;
910 -> 912 ;
913 [label="Dalc <= 3.0\nmse = 0.1\nsamples = 2\nvalue = 4.6"] ;
909 -> 913 ;
914 [label="mse = 0.0\nsamples = 1\nvalue = 4.9"] ;
913 -> 914 ;
915 [label="mse = 0.0\nsamples = 1\nvalue = 4.3"] ;
913 -> 915 ;
916 [label="famsup <= 0.5\nmse = 0.1\nsamples = 2\nvalue = 6.8"] ;
908 -> 916 ;
917 [label="mse = 0.0\nsamples = 1\nvalue = 7.2"] ;
916 -> 917 ;
918 [label="mse = 0.0\nsamples = 1\nvalue = 6.5"] ;
916 -> 918 ;
919 [label="G2 <= 2.7\nmse = 0.1\nsamples = 2\nvalue = 1.8"] ;
907 -> 919 ;
920 [label="mse = 0.0\nsamples = 1\nvalue = 1.6"] ;
919 -> 920 ;
921 [label="mse = 0.0\nsamples = 1\nvalue = 2.1"] ;
919 -> 921 ;
922 [label="school <= 0.5\nmse = 5.4\nsamples = 27\nvalue = 6.6"] ;
832 -> 922 ;
923 [label="goout <= 0.5\nmse = 0.6\nsamples = 4\nvalue = 2.8"] ;
922 -> 923 ;
924 [label="Mjob <= 3.0\nmse = 0.1\nsamples = 2\nvalue = 3.4"] ;
923 -> 924 ;
925 [label="mse = 0.0\nsamples = 1\nvalue = 3.0"] ;
924 -> 925 ;
926 [label="mse = 0.0\nsamples = 1\nvalue = 3.6"] ;
924 -> 926 ;
927 [label="Medu <= 2.0\nmse = 0.1\nsamples = 2\nvalue = 1.9"] ;
923 -> 927 ;
928 [label="mse = 0.0\nsamples = 1\nvalue = 1.6"] ;
927 -> 928 ;
929 [label="mse = 0.0\nsamples = 1\nvalue = 2.2"] ;
927 -> 929 ;
930 [label="G1 <= 7.6\nmse = 3.6\nsamples = 23\nvalue = 7.2"] ;
922 -> 930 ;
931 [label="Mjob <= 3.5\nmse = 3.0\nsamples = 19\nvalue = 7.6"] ;
930 -> 931 ;
932 [label="Fedu <= 1.5\nmse = 1.5\nsamples = 13\nvalue = 8.4"] ;
931 -> 932 ;
933 [label="schoolsup <= 0.5\nmse = 1.5\nsamples = 5\nvalue = 7.3"] ;
932 -> 933 ;
934 [label="studytime <= 0.8\nmse = 0.7\nsamples = 4\nvalue = 7.0"] ;
933 -> 934 ;
935 [label="mse = 0.0\nsamples = 1\nvalue = 5.1"] ;
934 -> 935 ;
936 [label="freetime <= 3.0\nmse = 0.1\nsamples = 3\nvalue = 7.3"] ;
934 -> 936 ;
937 [label="mse = 0.0\nsamples = 1\nvalue = 7.7"] ;
936 -> 937 ;
938 [label="G1 <= 5.2\nmse = 0.0\nsamples = 2\nvalue = 7.1"] ;
936 -> 938 ;
939 [label="mse = 0.0\nsamples = 1\nvalue = 6.7"] ;
938 -> 939 ;
940 [label="mse = 0.0\nsamples = 1\nvalue = 7.2"] ;
938 -> 940 ;
941 [label="mse = -0.0\nsamples = 1\nvalue = 9.8"] ;
933 -> 941 ;
942 [label="traveltime <= 1.2\nmse = 0.1\nsamples = 8\nvalue = 9.2"] ;
932 -> 942 ;
943 [label="traveltime <= 0.6\nmse = 0.0\nsamples = 3\nvalue = 8.7"] ;
942 -> 943 ;
944 [label="mse = 0.0\nsamples = 1\nvalue = 8.5"] ;
943 -> 944 ;
945 [label="freetime <= 4.5\nmse = 0.0\nsamples = 2\nvalue = 8.8"] ;
943 -> 945 ;
946 [label="mse = 0.0\nsamples = 1\nvalue = 8.7"] ;
945 -> 946 ;
947 [label="mse = -0.0\nsamples = 1\nvalue = 8.9"] ;
945 -> 947 ;
948 [label="famsize <= 9.5\nmse = 0.1\nsamples = 5\nvalue = 9.3"] ;
942 -> 948 ;
949 [label="mse = 0.0\nsamples = 1\nvalue = 9.0"] ;
948 -> 949 ;
950 [label="Fjob <= 2.0\nmse = 0.0\nsamples = 4\nvalue = 9.5"] ;
948 -> 950 ;
951 [label="mse = 0.0\nsamples = 1\nvalue = 9.6"] ;
950 -> 951 ;
952 [label="reason <= 0.5\nmse = 0.0\nsamples = 3\nvalue = 9.5"] ;
950 -> 952 ;
953 [label="mse = 0.0\nsamples = 1\nvalue = 9.4"] ;
952 -> 953 ;
954 [label="mse = 0.0\nsamples = 2\nvalue = 9.5"] ;
952 -> 954 ;
955 [label="G2 <= 7.9\nmse = 2.3\nsamples = 6\nvalue = 6.1"] ;
931 -> 955 ;
956 [label="traveltime <= 3.5\nmse = 0.6\nsamples = 2\nvalue = 8.4"] ;
955 -> 956 ;
957 [label="mse = 0.0\nsamples = 1\nvalue = 9.0"] ;
956 -> 957 ;
958 [label="mse = -0.0\nsamples = 1\nvalue = 7.3"] ;
956 -> 958 ;
959 [label="traveltime <= 2.4\nmse = 0.2\nsamples = 4\nvalue = 5.2"] ;
955 -> 959 ;
960 [label="Medu <= 3.0\nmse = 0.0\nsamples = 3\nvalue = 5.5"] ;
959 -> 960 ;
961 [label="goout <= 4.0\nmse = 0.0\nsamples = 2\nvalue = 5.6"] ;
960 -> 961 ;
962 [label="mse = 0.0\nsamples = 1\nvalue = 5.7"] ;
961 -> 962 ;
963 [label="mse = 0.0\nsamples = 1\nvalue = 5.5"] ;
961 -> 963 ;
964 [label="mse = 0.0\nsamples = 1\nvalue = 5.2"] ;
960 -> 964 ;
965 [label="mse = -0.0\nsamples = 1\nvalue = 4.6"] ;
959 -> 965 ;
966 [label="Fedu <= 3.5\nmse = 1.4\nsamples = 4\nvalue = 4.9"] ;
930 -> 966 ;
967 [label="mse = 0.0\nsamples = 1\nvalue = 2.7"] ;
966 -> 967 ;
968 [label="traveltime <= 3.1\nmse = 0.3\nsamples = 3\nvalue = 5.4"] ;
966 -> 968 ;
969 [label="health <= 2.5\nmse = 0.0\nsamples = 2\nvalue = 5.7"] ;
968 -> 969 ;
970 [label="mse = 0.0\nsamples = 1\nvalue = 5.6"] ;
969 -> 970 ;
971 [label="mse = 0.0\nsamples = 1\nvalue = 6.0"] ;
969 -> 971 ;
972 [label="mse = -0.0\nsamples = 1\nvalue = 4.6"] ;
968 -> 972 ;
973 [label="absences <= 1.5\nmse = 6.5\nsamples = 29\nvalue = 7.1"] ;
789 -> 973 ;
974 [label="freetime <= 3.5\nmse = 4.3\nsamples = 25\nvalue = 7.5"] ;
973 -> 974 ;
975 [label="famsize <= 9.5\nmse = 2.1\nsamples = 11\nvalue = 8.7"] ;
974 -> 975 ;
976 [label="failures <= 4.5\nmse = 0.9\nsamples = 10\nvalue = 9.0"] ;
975 -> 976 ;
977 [label="health <= 2.5\nmse = 0.2\nsamples = 8\nvalue = 9.2"] ;
976 -> 977 ;
978 [label="G1 <= 9.7\nmse = 0.1\nsamples = 3\nvalue = 9.7"] ;
977 -> 978 ;
979 [label="health <= 1.5\nmse = 0.0\nsamples = 2\nvalue = 9.8"] ;
978 -> 979 ;
980 [label="mse = 0.0\nsamples = 1\nvalue = 10.0"] ;
979 -> 980 ;
981 [label="mse = 0.0\nsamples = 1\nvalue = 9.7"] ;
979 -> 981 ;
982 [label="mse = -0.0\nsamples = 1\nvalue = 9.1"] ;
978 -> 982 ;
983 [label="absences <= 1.1\nmse = 0.0\nsamples = 5\nvalue = 9.0"] ;
977 -> 983 ;
984 [label="famrel <= 1.5\nmse = 0.0\nsamples = 4\nvalue = 9.0"] ;
983 -> 984 ;
985 [label="mse = 0.0\nsamples = 1\nvalue = 9.1"] ;
984 -> 985 ;
986 [label="Fjob <= 1.0\nmse = 0.0\nsamples = 3\nvalue = 9.0"] ;
984 -> 986 ;
987 [label="mse = 0.0\nsamples = 1\nvalue = 8.9"] ;
986 -> 987 ;
988 [label="mse = -0.0\nsamples = 2\nvalue = 9.0"] ;
986 -> 988 ;
989 [label="mse = 0.0\nsamples = 1\nvalue = 8.5"] ;
983 -> 989 ;
990 [label="school <= 5.0\nmse = 2.6\nsamples = 2\nvalue = 7.7"] ;
976 -> 990 ;
991 [label="mse = 0.0\nsamples = 1\nvalue = 5.4"] ;
990 -> 991 ;
992 [label="mse = 0.0\nsamples = 1\nvalue = 8.8"] ;
990 -> 992 ;
993 [label="mse = -0.0\nsamples = 1\nvalue = 3.9"] ;
975 -> 993 ;
994 [label="famrel <= 4.5\nmse = 3.9\nsamples = 14\nvalue = 6.5"] ;
974 -> 994 ;
995 [label="Dalc <= 1.5\nmse = 2.6\nsamples = 10\nvalue = 5.8"] ;
994 -> 995 ;
996 [label="guardian <= 0.5\nmse = 0.1\nsamples = 2\nvalue = 8.2"] ;
995 -> 996 ;
997 [label="mse = 0.0\nsamples = 1\nvalue = 7.7"] ;
996 -> 997 ;
998 [label="mse = 0.0\nsamples = 1\nvalue = 8.5"] ;
996 -> 998 ;
999 [label="traveltime <= 0.4\nmse = 1.6\nsamples = 8\nvalue = 5.3"] ;
995 -> 999 ;
1000 [label="mse = 0.0\nsamples = 1\nvalue = 7.5"] ;
999 -> 1000 ;
1001 [label="Mjob <= 3.0\nmse = 0.5\nsamples = 7\nvalue = 4.8"] ;
999 -> 1001 ;
1002 [label="G2 <= 6.4\nmse = 0.2\nsamples = 5\nvalue = 5.1"] ;
1001 -> 1002 ;
1003 [label="G1 <= 8.5\nmse = 0.0\nsamples = 3\nvalue = 4.8"] ;
1002 -> 1003 ;
1004 [label="mse = 0.0\nsamples = 1\nvalue = 4.5"] ;
1003 -> 1004 ;
1005 [label="Fedu <= 2.5\nmse = 0.0\nsamples = 2\nvalue = 4.9"] ;
1003 -> 1005 ;
1006 [label="mse = 0.0\nsamples = 1\nvalue = 4.8"] ;
1005 -> 1006 ;
1007 [label="mse = 0.0\nsamples = 1\nvalue = 4.9"] ;
1005 -> 1007 ;
1008 [label="Medu <= 1.5\nmse = 0.0\nsamples = 2\nvalue = 5.7"] ;
1002 -> 1008 ;
1009 [label="mse = 0.0\nsamples = 1\nvalue = 5.8"] ;
1008 -> 1009 ;
1010 [label="mse = -0.0\nsamples = 1\nvalue = 5.5"] ;
1008 -> 1010 ;
1011 [label="Fedu <= 2.5\nmse = 0.2\nsamples = 2\nvalue = 3.8"] ;
1001 -> 1011 ;
1012 [label="mse = 0.0\nsamples = 1\nvalue = 3.1"] ;
1011 -> 1012 ;
1013 [label="mse = 0.0\nsamples = 1\nvalue = 4.1"] ;
1011 -> 1013 ;
1014 [label="health <= 1.5\nmse = 0.4\nsamples = 4\nvalue = 9.1"] ;
994 -> 1014 ;
1015 [label="mse = 0.0\nsamples = 1\nvalue = 7.9"] ;
1014 -> 1015 ;
1016 [label="age <= 17.5\nmse = 0.0\nsamples = 3\nvalue = 9.4"] ;
1014 -> 1016 ;
1017 [label="G2 <= 5.8\nmse = 0.0\nsamples = 2\nvalue = 9.5"] ;
1016 -> 1017 ;
1018 [label="mse = 0.0\nsamples = 1\nvalue = 9.4"] ;
1017 -> 1018 ;
1019 [label="mse = 0.0\nsamples = 1\nvalue = 9.6"] ;
1017 -> 1019 ;
1020 [label="mse = -0.0\nsamples = 1\nvalue = 9.1"] ;
1016 -> 1020 ;
1021 [label="school <= 4.5\nmse = 9.2\nsamples = 4\nvalue = 3.3"] ;
973 -> 1021 ;
1022 [label="Mjob <= 1.0\nmse = 0.7\nsamples = 3\nvalue = 1.8"] ;
1021 -> 1022 ;
1023 [label="mse = 0.0\nsamples = 1\nvalue = 0.4"] ;
1022 -> 1023 ;
1024 [label="course <= 5.0\nmse = 0.1\nsamples = 2\nvalue = 2.3"] ;
1022 -> 1024 ;
1025 [label="mse = 0.0\nsamples = 1\nvalue = 2.5"] ;
1024 -> 1025 ;
1026 [label="mse = 0.0\nsamples = 1\nvalue = 2.0"] ;
1024 -> 1026 ;
1027 [label="mse = 0.0\nsamples = 1\nvalue = 9.2"] ;
1021 -> 1027 ;
1028 [label="traveltime <= 2.4\nmse = 9.5\nsamples = 13\nvalue = 3.2"] ;
788 -> 1028 ;
1029 [label="schoolsup <= 0.5\nmse = 0.7\nsamples = 7\nvalue = 1.4"] ;
1028 -> 1029 ;
1030 [label="studytime <= 0.4\nmse = 0.3\nsamples = 5\nvalue = 1.9"] ;
1029 -> 1030 ;
1031 [label="guardian <= 0.5\nmse = 0.1\nsamples = 2\nvalue = 2.6"] ;
1030 -> 1031 ;
1032 [label="mse = 0.0\nsamples = 1\nvalue = 3.1"] ;
1031 -> 1032 ;
1033 [label="mse = -0.0\nsamples = 1\nvalue = 2.4"] ;
1031 -> 1033 ;
1034 [label="goout <= 3.0\nmse = 0.0\nsamples = 3\nvalue = 1.5"] ;
1030 -> 1034 ;
1035 [label="G1 <= 2.3\nmse = 0.0\nsamples = 2\nvalue = 1.6"] ;
1034 -> 1035 ;
1036 [label="mse = 0.0\nsamples = 1\nvalue = 1.5"] ;
1035 -> 1036 ;
1037 [label="mse = 0.0\nsamples = 1\nvalue = 1.6"] ;
1035 -> 1037 ;
1038 [label="mse = -0.0\nsamples = 1\nvalue = 1.2"] ;
1034 -> 1038 ;
1039 [label="studytime <= 1.6\nmse = 0.0\nsamples = 2\nvalue = 0.4"] ;
1029 -> 1039 ;
1040 [label="mse = 0.0\nsamples = 1\nvalue = 0.0"] ;
1039 -> 1040 ;
1041 [label="mse = 0.0\nsamples = 1\nvalue = 0.5"] ;
1039 -> 1041 ;
1042 [label="G1 <= 7.1\nmse = 10.8\nsamples = 6\nvalue = 5.8"] ;
1028 -> 1042 ;
1043 [label="Walc <= 3.5\nmse = 0.5\nsamples = 3\nvalue = 9.0"] ;
1042 -> 1043 ;
1044 [label="reason <= 0.5\nmse = 0.1\nsamples = 2\nvalue = 9.4"] ;
1043 -> 1044 ;
1045 [label="mse = 0.0\nsamples = 1\nvalue = 9.2"] ;
1044 -> 1045 ;
1046 [label="mse = 0.0\nsamples = 1\nvalue = 9.8"] ;
1044 -> 1046 ;
1047 [label="mse = -0.0\nsamples = 1\nvalue = 7.8"] ;
1043 -> 1047 ;
1048 [label="health <= 3.5\nmse = 4.5\nsamples = 3\nvalue = 3.3"] ;
1042 -> 1048 ;
1049 [label="guardian <= 0.5\nmse = 0.1\nsamples = 2\nvalue = 1.6"] ;
1048 -> 1049 ;
1050 [label="mse = 0.0\nsamples = 1\nvalue = 1.9"] ;
1049 -> 1050 ;
1051 [label="mse = 0.0\nsamples = 1\nvalue = 1.4"] ;
1049 -> 1051 ;
1052 [label="mse = 0.0\nsamples = 1\nvalue = 5.9"] ;
1048 -> 1052 ;
1053 [label="G2 <= 8.2\nmse = 6.4\nsamples = 43\nvalue = 6.8"] ;
787 -> 1053 ;
1054 [label="Medu <= 0.5\nmse = 5.5\nsamples = 39\nvalue = 7.2"] ;
1053 -> 1054 ;
1055 [label="Fjob <= 3.0\nmse = 10.6\nsamples = 7\nvalue = 5.1"] ;
1054 -> 1055 ;
1056 [label="traveltime <= 1.0\nmse = 1.4\nsamples = 5\nvalue = 2.9"] ;
1055 -> 1056 ;
1057 [label="activities <= 0.5\nmse = 0.3\nsamples = 3\nvalue = 2.2"] ;
1056 -> 1057 ;
1058 [label="mse = 0.0\nsamples = 1\nvalue = 3.1"] ;
1057 -> 1058 ;
1059 [label="Mjob <= 1.5\nmse = 0.0\nsamples = 2\nvalue = 1.9"] ;
1057 -> 1059 ;
1060 [label="mse = 0.0\nsamples = 1\nvalue = 2.1"] ;
1059 -> 1060 ;
1061 [label="mse = 0.0\nsamples = 1\nvalue = 1.8"] ;
1059 -> 1061 ;
1062 [label="studytime <= 0.7\nmse = 0.4\nsamples = 2\nvalue = 4.4"] ;
1056 -> 1062 ;
1063 [label="mse = 0.0\nsamples = 1\nvalue = 3.8"] ;
1062 -> 1063 ;
1064 [label="mse = -0.0\nsamples = 1\nvalue = 5.0"] ;
1062 -> 1064 ;
1065 [label="famsup <= 0.5\nmse = 0.0\nsamples = 2\nvalue = 9.5"] ;
1055 -> 1065 ;
1066 [label="mse = 0.0\nsamples = 1\nvalue = 9.4"] ;
1065 -> 1066 ;
1067 [label="mse = -0.0\nsamples = 1\nvalue = 9.6"] ;
1065 -> 1067 ;
1068 [label="freetime <= 3.5\nmse = 3.9\nsamples = 32\nvalue = 7.5"] ;
1054 -> 1068 ;
1069 [label="traveltime <= 1.9\nmse = 4.7\nsamples = 21\nvalue = 6.8"] ;
1068 -> 1069 ;
1070 [label="studytime <= 1.1\nmse = 1.1\nsamples = 10\nvalue = 7.9"] ;
1069 -> 1070 ;
1071 [label="famsize <= 9.5\nmse = 0.8\nsamples = 5\nvalue = 7.1"] ;
1070 -> 1071 ;
1072 [label="famsize <= 8.5\nmse = 0.0\nsamples = 2\nvalue = 6.2"] ;
1071 -> 1072 ;
1073 [label="mse = 0.0\nsamples = 1\nvalue = 6.0"] ;
1072 -> 1073 ;
1074 [label="mse = -0.0\nsamples = 1\nvalue = 6.2"] ;
1072 -> 1074 ;
1075 [label="activities <= 0.5\nmse = 0.2\nsamples = 3\nvalue = 7.8"] ;
1071 -> 1075 ;
1076 [label="mse = 0.0\nsamples = 1\nvalue = 8.7"] ;
1075 -> 1076 ;
1077 [label="Medu <= 2.5\nmse = 0.0\nsamples = 2\nvalue = 7.6"] ;
1075 -> 1077 ;
1078 [label="mse = 0.0\nsamples = 1\nvalue = 7.5"] ;
1077 -> 1078 ;
1079 [label="mse = -0.0\nsamples = 1\nvalue = 7.6"] ;
1077 -> 1079 ;
1080 [label="health <= 2.5\nmse = 0.1\nsamples = 5\nvalue = 8.7"] ;
1070 -> 1080 ;
1081 [label="mse = 0.0\nsamples = 1\nvalue = 9.6"] ;
1080 -> 1081 ;
1082 [label="Mjob <= 0.5\nmse = 0.0\nsamples = 4\nvalue = 8.6"] ;
1080 -> 1082 ;
1083 [label="mse = 0.0\nsamples = 1\nvalue = 8.2"] ;
1082 -> 1083 ;
1084 [label="studytime <= 1.6\nmse = 0.0\nsamples = 3\nvalue = 8.6"] ;
1082 -> 1084 ;
1085 [label="mse = 0.0\nsamples = 1\nvalue = 8.8"] ;
1084 -> 1085 ;
1086 [label="sex <= 0.5\nmse = 0.0\nsamples = 2\nvalue = 8.6"] ;
1084 -> 1086 ;
1087 [label="mse = 0.0\nsamples = 1\nvalue = 8.5"] ;
1086 -> 1087 ;
1088 [label="mse = 0.0\nsamples = 1\nvalue = 8.6"] ;
1086 -> 1088 ;
1089 [label="address <= 0.5\nmse = 5.9\nsamples = 11\nvalue = 5.6"] ;
1069 -> 1089 ;
1090 [label="famrel <= 4.5\nmse = 8.0\nsamples = 3\nvalue = 2.9"] ;
1089 -> 1090 ;
1091 [label="course <= 2.5\nmse = 0.0\nsamples = 2\nvalue = 1.3"] ;
1090 -> 1091 ;
1092 [label="mse = 0.0\nsamples = 1\nvalue = 1.4"] ;
1091 -> 1092 ;
1093 [label="mse = 0.0\nsamples = 1\nvalue = 1.0"] ;
1091 -> 1093 ;
1094 [label="mse = -0.0\nsamples = 1\nvalue = 7.8"] ;
1090 -> 1094 ;
1095 [label="studytime <= 1.3\nmse = 2.2\nsamples = 8\nvalue = 6.5"] ;
1089 -> 1095 ;
1096 [label="course <= 1.5\nmse = 0.3\nsamples = 4\nvalue = 5.3"] ;
1095 -> 1096 ;
1097 [label="Dalc <= 2.5\nmse = 0.1\nsamples = 2\nvalue = 5.8"] ;
1096 -> 1097 ;
1098 [label="mse = 0.0\nsamples = 1\nvalue = 5.5"] ;
1097 -> 1098 ;
1099 [label="mse = -0.0\nsamples = 1\nvalue = 6.3"] ;
1097 -> 1099 ;
1100 [label="sex <= 0.5\nmse = 0.1\nsamples = 2\nvalue = 4.9"] ;
1096 -> 1100 ;
1101 [label="mse = 0.0\nsamples = 1\nvalue = 4.5"] ;
1100 -> 1101 ;
1102 [label="mse = 0.0\nsamples = 1\nvalue = 5.1"] ;
1100 -> 1102 ;
1103 [label="G2 <= 5.0\nmse = 1.7\nsamples = 4\nvalue = 7.5"] ;
1095 -> 1103 ;
1104 [label="G2 <= 3.2\nmse = 0.5\nsamples = 2\nvalue = 8.8"] ;
1103 -> 1104 ;
1105 [label="mse = 0.0\nsamples = 1\nvalue = 8.3"] ;
1104 -> 1105 ;
1106 [label="mse = 0.0\nsamples = 1\nvalue = 9.8"] ;
1104 -> 1106 ;
1107 [label="course <= 3.0\nmse = 0.2\nsamples = 2\nvalue = 6.5"] ;
1103 -> 1107 ;
1108 [label="mse = 0.0\nsamples = 1\nvalue = 6.0"] ;
1107 -> 1108 ;
1109 [label="mse = 0.0\nsamples = 1\nvalue = 7.0"] ;
1107 -> 1109 ;
1110 [label="health <= 4.5\nmse = 1.0\nsamples = 11\nvalue = 8.5"] ;
1068 -> 1110 ;
1111 [label="Mjob <= 3.5\nmse = 0.6\nsamples = 10\nvalue = 8.7"] ;
1110 -> 1111 ;
1112 [label="G2 <= 5.4\nmse = 0.4\nsamples = 7\nvalue = 8.3"] ;
1111 -> 1112 ;
1113 [label="sex <= 0.5\nmse = 0.0\nsamples = 6\nvalue = 8.0"] ;
1112 -> 1113 ;
1114 [label="Medu <= 3.0\nmse = 0.0\nsamples = 3\nvalue = 8.2"] ;
1113 -> 1114 ;
1115 [label="mse = 0.0\nsamples = 1\nvalue = 8.4"] ;
1114 -> 1115 ;
1116 [label="mse = 0.0\nsamples = 2\nvalue = 8.1"] ;
1114 -> 1116 ;
1117 [label="health <= 1.5\nmse = 0.0\nsamples = 3\nvalue = 7.8"] ;
1113 -> 1117 ;
1118 [label="mse = 0.0\nsamples = 1\nvalue = 7.7"] ;
1117 -> 1118 ;
1119 [label="mse = 0.0\nsamples = 2\nvalue = 7.9"] ;
1117 -> 1119 ;
1120 [label="mse = -0.0\nsamples = 1\nvalue = 9.5"] ;
1112 -> 1120 ;
1121 [label="G2 <= 2.8\nmse = 0.1\nsamples = 3\nvalue = 9.5"] ;
1111 -> 1121 ;
1122 [label="mse = 0.0\nsamples = 1\nvalue = 9.8"] ;
1121 -> 1122 ;
1123 [label="studytime <= 1.1\nmse = 0.0\nsamples = 2\nvalue = 9.2"] ;
1121 -> 1123 ;
1124 [label="mse = 0.0\nsamples = 1\nvalue = 9.4"] ;
1123 -> 1124 ;
1125 [label="mse = -0.0\nsamples = 1\nvalue = 9.1"] ;
1123 -> 1125 ;
1126 [label="mse = 0.0\nsamples = 1\nvalue = 5.3"] ;
1110 -> 1126 ;
1127 [label="G1 <= 5.9\nmse = 3.3\nsamples = 4\nvalue = 3.5"] ;
1053 -> 1127 ;
1128 [label="Medu <= 3.5\nmse = 0.0\nsamples = 2\nvalue = 5.4"] ;
1127 -> 1128 ;
1129 [label="mse = 0.0\nsamples = 1\nvalue = 5.3"] ;
1128 -> 1129 ;
1130 [label="mse = -0.0\nsamples = 1\nvalue = 5.6"] ;
1128 -> 1130 ;
1131 [label="famsup <= 0.5\nmse = 0.9\nsamples = 2\nvalue = 2.1"] ;
1127 -> 1131 ;
1132 [label="mse = 0.0\nsamples = 1\nvalue = 0.4"] ;
1131 -> 1132 ;
1133 [label="mse = 0.0\nsamples = 1\nvalue = 2.6"] ;
1131 -> 1133 ;
1134 [label="studytime <= 1.2\nmse = 9.3\nsamples = 154\nvalue = 4.7"] ;
2 -> 1134 ;
1135 [label="traveltime <= 0.3\nmse = 9.0\nsamples = 84\nvalue = 5.4"] ;
1134 -> 1135 ;
1136 [label="freetime <= 4.5\nmse = 3.0\nsamples = 8\nvalue = 8.0"] ;
1135 -> 1136 ;
1137 [label="health <= 2.5\nmse = 0.6\nsamples = 7\nvalue = 8.4"] ;
1136 -> 1137 ;
1138 [label="traveltime <= 0.1\nmse = 0.1\nsamples = 2\nvalue = 7.2"] ;
1137 -> 1138 ;
1139 [label="mse = 0.0\nsamples = 1\nvalue = 7.7"] ;
1138 -> 1139 ;
1140 [label="mse = 0.0\nsamples = 1\nvalue = 6.9"] ;
1138 -> 1140 ;
1141 [label="freetime <= 1.5\nmse = 0.2\nsamples = 5\nvalue = 8.8"] ;
1137 -> 1141 ;
1142 [label="Walc <= 3.0\nmse = 0.0\nsamples = 2\nvalue = 9.4"] ;
1141 -> 1142 ;
1143 [label="mse = 0.0\nsamples = 1\nvalue = 9.3"] ;
1142 -> 1143 ;
1144 [label="mse = -0.0\nsamples = 1\nvalue = 9.7"] ;
1142 -> 1144 ;
1145 [label="mse = 0.0\nsamples = 3\nvalue = 8.5"] ;
1141 -> 1145 ;
1146 [label="mse = -0.0\nsamples = 1\nvalue = 2.4"] ;
1136 -> 1146 ;
1147 [label="traveltime <= 2.3\nmse = 8.9\nsamples = 76\nvalue = 5.1"] ;
1135 -> 1147 ;
1148 [label="Dalc <= 2.5\nmse = 7.9\nsamples = 45\nvalue = 4.3"] ;
1147 -> 1148 ;
1149 [label="absences <= 0.6\nmse = 6.9\nsamples = 20\nvalue = 5.7"] ;
1148 -> 1149 ;
1150 [label="G2 <= 7.6\nmse = 3.2\nsamples = 6\nvalue = 8.1"] ;
1149 -> 1150 ;
1151 [label="famsup <= 0.5\nmse = 1.0\nsamples = 5\nvalue = 8.7"] ;
1150 -> 1151 ;
1152 [label="mse = 0.0\nsamples = 1\nvalue = 7.2"] ;
1151 -> 1152 ;
1153 [label="Medu <= 2.5\nmse = 0.4\nsamples = 4\nvalue = 9.2"] ;
1151 -> 1153 ;
1154 [label="traveltime <= 1.5\nmse = 0.1\nsamples = 3\nvalue = 8.8"] ;
1153 -> 1154 ;
1155 [label="mse = 0.0\nsamples = 2\nvalue = 9.0"] ;
1154 -> 1155 ;
1156 [label="mse = 0.0\nsamples = 1\nvalue = 8.5"] ;
1154 -> 1156 ;
1157 [label="mse = 0.0\nsamples = 1\nvalue = 10.0"] ;
1153 -> 1157 ;
1158 [label="mse = -0.0\nsamples = 1\nvalue = 3.9"] ;
1150 -> 1158 ;
1159 [label="goout <= 4.5\nmse = 4.8\nsamples = 14\nvalue = 4.7"] ;
1149 -> 1159 ;
1160 [label="failures <= 8.0\nmse = 3.4\nsamples = 12\nvalue = 5.2"] ;
1159 -> 1160 ;
1161 [label="mse = 0.0\nsamples = 1\nvalue = 2.3"] ;
1160 -> 1161 ;
1162 [label="failures <= 11.5\nmse = 2.5\nsamples = 11\nvalue = 5.6"] ;
1160 -> 1162 ;
1163 [label="G1 <= 2.7\nmse = 0.5\nsamples = 5\nvalue = 7.2"] ;
1162 -> 1163 ;
1164 [label="mse = 0.0\nsamples = 1\nvalue = 5.8"] ;
1163 -> 1164 ;
1165 [label="course <= 4.5\nmse = 0.1\nsamples = 4\nvalue = 7.5"] ;
1163 -> 1165 ;
1166 [label="guardian <= 1.5\nmse = 0.0\nsamples = 3\nvalue = 7.4"] ;
1165 -> 1166 ;
1167 [label="mse = 0.0\nsamples = 2\nvalue = 7.4"] ;
1166 -> 1167 ;
1168 [label="mse = -0.0\nsamples = 1\nvalue = 7.3"] ;
1166 -> 1168 ;
1169 [label="mse = 0.0\nsamples = 1\nvalue = 8.2"] ;
1165 -> 1169 ;
1170 [label="absences <= 1.3\nmse = 0.9\nsamples = 6\nvalue = 4.6"] ;
1162 -> 1170 ;
1171 [label="mse = 0.0\nsamples = 1\nvalue = 2.3"] ;
1170 -> 1171 ;
1172 [label="famsize <= 6.0\nmse = 0.3\nsamples = 5\nvalue = 4.8"] ;
1170 -> 1172 ;
1173 [label="failures <= 12.5\nmse = 0.0\nsamples = 3\nvalue = 5.3"] ;
1172 -> 1173 ;
1174 [label="mse = 0.0\nsamples = 1\nvalue = 4.9"] ;
1173 -> 1174 ;
1175 [label="Fjob <= 1.5\nmse = 0.0\nsamples = 2\nvalue = 5.4"] ;
1173 -> 1175 ;
1176 [label="mse = 0.0\nsamples = 1\nvalue = 5.3"] ;
1175 -> 1176 ;
1177 [label="mse = 0.0\nsamples = 1\nvalue = 5.5"] ;
1175 -> 1177 ;
1178 [label="Fjob <= 3.5\nmse = 0.0\nsamples = 2\nvalue = 4.2"] ;
1172 -> 1178 ;
1179 [label="mse = 0.0\nsamples = 1\nvalue = 4.3"] ;
1178 -> 1179 ;
1180 [label="mse = -0.0\nsamples = 1\nvalue = 3.9"] ;
1178 -> 1180 ;
1181 [label="failures <= 10.0\nmse = 0.1\nsamples = 2\nvalue = 1.3"] ;
1159 -> 1181 ;
1182 [label="mse = 0.0\nsamples = 1\nvalue = 1.7"] ;
1181 -> 1182 ;
1183 [label="mse = 0.0\nsamples = 1\nvalue = 1.1"] ;
1181 -> 1183 ;
1184 [label="G2 <= 0.2\nmse = 5.7\nsamples = 25\nvalue = 3.2"] ;
1148 -> 1184 ;
1185 [label="freetime <= 4.0\nmse = 0.5\nsamples = 2\nvalue = 7.1"] ;
1184 -> 1185 ;
1186 [label="mse = 0.0\nsamples = 1\nvalue = 8.1"] ;
1185 -> 1186 ;
1187 [label="mse = 0.0\nsamples = 1\nvalue = 6.6"] ;
1185 -> 1187 ;
1188 [label="goout <= 0.5\nmse = 4.7\nsamples = 23\nvalue = 2.8"] ;
1184 -> 1188 ;
1189 [label="studytime <= 0.7\nmse = 3.3\nsamples = 5\nvalue = 5.0"] ;
1188 -> 1189 ;
1190 [label="famsize <= 8.5\nmse = 0.9\nsamples = 3\nvalue = 6.7"] ;
1189 -> 1190 ;
1191 [label="Medu <= 2.5\nmse = 0.0\nsamples = 2\nvalue = 7.4"] ;
1190 -> 1191 ;
1192 [label="mse = 0.0\nsamples = 1\nvalue = 7.5"] ;
1191 -> 1192 ;
1193 [label="mse = -0.0\nsamples = 1\nvalue = 7.3"] ;
1191 -> 1193 ;
1194 [label="mse = -0.0\nsamples = 1\nvalue = 5.4"] ;
1190 -> 1194 ;
1195 [label="school <= 3.0\nmse = 0.0\nsamples = 2\nvalue = 3.3"] ;
1189 -> 1195 ;
1196 [label="mse = 0.0\nsamples = 1\nvalue = 3.3"] ;
1195 -> 1196 ;
1197 [label="mse = -0.0\nsamples = 1\nvalue = 3.4"] ;
1195 -> 1197 ;
1198 [label="famrel <= 4.5\nmse = 3.8\nsamples = 18\nvalue = 2.4"] ;
1188 -> 1198 ;
1199 [label="Mjob <= 0.5\nmse = 2.8\nsamples = 16\nvalue = 2.1"] ;
1198 -> 1199 ;
1200 [label="paid <= 0.5\nmse = 2.3\nsamples = 5\nvalue = 3.6"] ;
1199 -> 1200 ;
1201 [label="course <= 5.0\nmse = 0.7\nsamples = 4\nvalue = 4.8"] ;
1200 -> 1201 ;
1202 [label="higher <= 0.5\nmse = 0.0\nsamples = 2\nvalue = 4.0"] ;
1201 -> 1202 ;
1203 [label="mse = 0.0\nsamples = 1\nvalue = 3.8"] ;
1202 -> 1203 ;
1204 [label="mse = 0.0\nsamples = 1\nvalue = 4.2"] ;
1202 -> 1204 ;
1205 [label="health <= 3.5\nmse = 0.2\nsamples = 2\nvalue = 5.6"] ;
1201 -> 1205 ;
1206 [label="mse = 0.0\nsamples = 1\nvalue = 5.1"] ;
1205 -> 1206 ;
1207 [label="mse = 0.0\nsamples = 1\nvalue = 6.0"] ;
1205 -> 1207 ;
1208 [label="mse = 0.0\nsamples = 1\nvalue = 2.0"] ;
1200 -> 1208 ;
1209 [label="famrel <= 2.5\nmse = 1.9\nsamples = 11\nvalue = 1.5"] ;
1199 -> 1209 ;
1210 [label="studytime <= 0.4\nmse = 0.2\nsamples = 6\nvalue = 0.5"] ;
1209 -> 1210 ;
1211 [label="health <= 3.5\nmse = 0.0\nsamples = 3\nvalue = 0.1"] ;
1210 -> 1211 ;
1212 [label="romantic <= 0.5\nmse = 0.0\nsamples = 2\nvalue = 0.0"] ;
1211 -> 1212 ;
1213 [label="mse = 0.0\nsamples = 1\nvalue = 0.1"] ;
1212 -> 1213 ;
1214 [label="mse = 0.0\nsamples = 1\nvalue = 0.0"] ;
1212 -> 1214 ;
1215 [label="mse = 0.0\nsamples = 1\nvalue = 0.3"] ;
1211 -> 1215 ;
1216 [label="failures <= 10.0\nmse = 0.1\nsamples = 3\nvalue = 1.0"] ;
1210 -> 1216 ;
1217 [label="mse = 0.0\nsamples = 2\nvalue = 1.2"] ;
1216 -> 1217 ;
1218 [label="mse = -0.0\nsamples = 1\nvalue = 0.7"] ;
1216 -> 1218 ;
1219 [label="failures <= 9.5\nmse = 1.4\nsamples = 5\nvalue = 2.6"] ;
1209 -> 1219 ;
1220 [label="higher <= 0.5\nmse = 0.5\nsamples = 2\nvalue = 3.8"] ;
1219 -> 1220 ;
1221 [label="mse = 0.0\nsamples = 1\nvalue = 3.1"] ;
1220 -> 1221 ;
1222 [label="mse = 0.0\nsamples = 1\nvalue = 4.5"] ;
1220 -> 1222 ;
1223 [label="famrel <= 3.5\nmse = 0.1\nsamples = 3\nvalue = 1.6"] ;
1219 -> 1223 ;
1224 [label="mse = 0.0\nsamples = 1\nvalue = 1.0"] ;
1223 -> 1224 ;
1225 [label="romantic <= 0.5\nmse = 0.0\nsamples = 2\nvalue = 1.8"] ;
1223 -> 1225 ;
1226 [label="mse = 0.0\nsamples = 1\nvalue = 1.9"] ;
1225 -> 1226 ;
1227 [label="mse = 0.0\nsamples = 1\nvalue = 1.7"] ;
1225 -> 1227 ;
1228 [label="traveltime <= 0.6\nmse = 0.6\nsamples = 2\nvalue = 6.2"] ;
1198 -> 1228 ;
1229 [label="mse = 0.0\nsamples = 1\nvalue = 6.9"] ;
1228 -> 1229 ;
1230 [label="mse = 0.0\nsamples = 1\nvalue = 5.4"] ;
1228 -> 1230 ;
1231 [label="studytime <= 0.0\nmse = 8.3\nsamples = 31\nvalue = 6.1"] ;
1147 -> 1231 ;
1232 [label="studytime <= 0.0\nmse = 4.0\nsamples = 2\nvalue = 1.2"] ;
1231 -> 1232 ;
1233 [label="mse = 0.0\nsamples = 1\nvalue = 4.7"] ;
1232 -> 1233 ;
1234 [label="mse = 0.0\nsamples = 1\nvalue = 0.1"] ;
1232 -> 1234 ;
1235 [label="course <= 4.5\nmse = 6.6\nsamples = 29\nvalue = 6.5"] ;
1231 -> 1235 ;
1236 [label="G1 <= 4.4\nmse = 4.3\nsamples = 23\nvalue = 7.1"] ;
1235 -> 1236 ;
1237 [label="course <= 3.5\nmse = 4.8\nsamples = 7\nvalue = 4.9"] ;
1236 -> 1237 ;
1238 [label="school <= 2.0\nmse = 2.5\nsamples = 6\nvalue = 4.4"] ;
1237 -> 1238 ;
1239 [label="course <= 2.0\nmse = 2.6\nsamples = 2\nvalue = 6.5"] ;
1238 -> 1239 ;
1240 [label="mse = 0.0\nsamples = 1\nvalue = 4.9"] ;
1239 -> 1240 ;
1241 [label="mse = 0.0\nsamples = 1\nvalue = 8.1"] ;
1239 -> 1241 ;
1242 [label="Dalc <= 2.5\nmse = 0.9\nsamples = 4\nvalue = 3.8"] ;
1238 -> 1242 ;
1243 [label="health <= 3.5\nmse = 0.1\nsamples = 2\nvalue = 2.4"] ;
1242 -> 1243 ;
1244 [label="mse = 0.0\nsamples = 1\nvalue = 2.7"] ;
1243 -> 1244 ;
1245 [label="mse = -0.0\nsamples = 1\nvalue = 2.1"] ;
1243 -> 1245 ;
1246 [label="Dalc <= 4.0\nmse = 0.1\nsamples = 2\nvalue = 4.3"] ;
1242 -> 1246 ;
1247 [label="mse = 0.0\nsamples = 1\nvalue = 4.6"] ;
1246 -> 1247 ;
1248 [label="mse = 0.0\nsamples = 1\nvalue = 3.9"] ;
1246 -> 1248 ;
1249 [label="mse = -0.0\nsamples = 1\nvalue = 9.7"] ;
1237 -> 1249 ;
1250 [label="G1 <= 7.8\nmse = 2.2\nsamples = 16\nvalue = 7.8"] ;
1236 -> 1250 ;
1251 [label="famrel <= 4.5\nmse = 1.5\nsamples = 9\nvalue = 8.5"] ;
1250 -> 1251 ;
1252 [label="reason <= 1.5\nmse = 0.5\nsamples = 8\nvalue = 9.0"] ;
1251 -> 1252 ;
1253 [label="absences <= 1.0\nmse = 0.3\nsamples = 5\nvalue = 8.5"] ;
1252 -> 1253 ;
1254 [label="age <= 16.5\nmse = 0.1\nsamples = 4\nvalue = 8.3"] ;
1253 -> 1254 ;
1255 [label="absences <= 0.6\nmse = 0.0\nsamples = 2\nvalue = 8.0"] ;
1254 -> 1255 ;
1256 [label="mse = 0.0\nsamples = 1\nvalue = 8.2"] ;
1255 -> 1256 ;
1257 [label="mse = 0.0\nsamples = 1\nvalue = 7.9"] ;
1255 -> 1257 ;
1258 [label="G1 <= 6.8\nmse = 0.0\nsamples = 2\nvalue = 8.6"] ;
1254 -> 1258 ;
1259 [label="mse = 0.0\nsamples = 1\nvalue = 8.5"] ;
1258 -> 1259 ;
1260 [label="mse = -0.0\nsamples = 1\nvalue = 8.6"] ;
1258 -> 1260 ;
1261 [label="mse = -0.0\nsamples = 1\nvalue = 9.6"] ;
1253 -> 1261 ;
1262 [label="schoolsup <= 0.5\nmse = 0.0\nsamples = 3\nvalue = 9.6"] ;
1252 -> 1262 ;
1263 [label="mse = 0.0\nsamples = 1\nvalue = 9.9"] ;
1262 -> 1263 ;
1264 [label="course <= 1.0\nmse = 0.0\nsamples = 2\nvalue = 9.4"] ;
1262 -> 1264 ;
1265 [label="mse = 0.0\nsamples = 1\nvalue = 9.4"] ;
1264 -> 1265 ;
1266 [label="mse = 0.0\nsamples = 1\nvalue = 9.5"] ;
1264 -> 1266 ;
1267 [label="mse = 0.0\nsamples = 1\nvalue = 6.1"] ;
1251 -> 1267 ;
1268 [label="reason <= 2.5\nmse = 1.2\nsamples = 7\nvalue = 6.7"] ;
1250 -> 1268 ;
1269 [label="freetime <= 4.0\nmse = 0.3\nsamples = 6\nvalue = 7.1"] ;
1268 -> 1269 ;
1270 [label="absences <= 1.4\nmse = 0.2\nsamples = 3\nvalue = 7.6"] ;
1269 -> 1270 ;
1271 [label="mse = 0.0\nsamples = 1\nvalue = 8.5"] ;
1270 -> 1271 ;
1272 [label="Walc <= 3.5\nmse = 0.0\nsamples = 2\nvalue = 7.4"] ;
1270 -> 1272 ;
1273 [label="mse = 0.0\nsamples = 1\nvalue = 7.3"] ;
1272 -> 1273 ;
1274 [label="mse = -0.0\nsamples = 1\nvalue = 7.5"] ;
1272 -> 1274 ;
1275 [label="studytime <= 0.8\nmse = 0.1\nsamples = 3\nvalue = 6.7"] ;
1269 -> 1275 ;
1276 [label="goout <= 4.0\nmse = 0.0\nsamples = 2\nvalue = 6.8"] ;
1275 -> 1276 ;
1277 [label="mse = 0.0\nsamples = 1\nvalue = 6.9"] ;
1276 -> 1277 ;
1278 [label="mse = -0.0\nsamples = 1\nvalue = 6.6"] ;
1276 -> 1278 ;
1279 [label="mse = -0.0\nsamples = 1\nvalue = 6.1"] ;
1275 -> 1279 ;
1280 [label="mse = 0.0\nsamples = 1\nvalue = 4.5"] ;
1268 -> 1280 ;
1281 [label="G2 <= 1.6\nmse = 9.4\nsamples = 6\nvalue = 3.8"] ;
1235 -> 1281 ;
1282 [label="Medu <= 1.5\nmse = 0.0\nsamples = 2\nvalue = 8.6"] ;
1281 -> 1282 ;
1283 [label="mse = 0.0\nsamples = 1\nvalue = 8.7"] ;
1282 -> 1283 ;
1284 [label="mse = -0.0\nsamples = 1\nvalue = 8.4"] ;
1282 -> 1284 ;
1285 [label="course <= 5.5\nmse = 2.7\nsamples = 4\nvalue = 2.3"] ;
1281 -> 1285 ;
1286 [label="higher <= 0.5\nmse = 0.5\nsamples = 2\nvalue = 0.8"] ;
1285 -> 1286 ;
1287 [label="mse = 0.0\nsamples = 1\nvalue = 1.8"] ;
1286 -> 1287 ;
1288 [label="mse = 0.0\nsamples = 1\nvalue = 0.3"] ;
1286 -> 1288 ;
1289 [label="health <= 2.5\nmse = 0.6\nsamples = 2\nvalue = 3.7"] ;
1285 -> 1289 ;
1290 [label="mse = 0.0\nsamples = 1\nvalue = 4.8"] ;
1289 -> 1290 ;
1291 [label="mse = 0.0\nsamples = 1\nvalue = 3.2"] ;
1289 -> 1291 ;
1292 [label="failures <= 14.5\nmse = 8.3\nsamples = 70\nvalue = 3.8"] ;
1134 -> 1292 ;
1293 [label="famrel <= 3.5\nmse = 7.4\nsamples = 63\nvalue = 3.5"] ;
1292 -> 1293 ;
1294 [label="sex <= 0.5\nmse = 7.8\nsamples = 41\nvalue = 4.2"] ;
1293 -> 1294 ;
1295 [label="Walc <= 1.5\nmse = 6.7\nsamples = 22\nvalue = 5.4"] ;
1294 -> 1295 ;
1296 [label="famsize <= 9.0\nmse = 0.5\nsamples = 3\nvalue = 8.5"] ;
1295 -> 1296 ;
1297 [label="mse = 0.0\nsamples = 2\nvalue = 8.9"] ;
1296 -> 1297 ;
1298 [label="mse = -0.0\nsamples = 1\nvalue = 7.1"] ;
1296 -> 1298 ;
1299 [label="health <= 4.0\nmse = 5.6\nsamples = 19\nvalue = 4.8"] ;
1295 -> 1299 ;
1300 [label="G1 <= 2.5\nmse = 4.4\nsamples = 11\nvalue = 3.7"] ;
1299 -> 1300 ;
1301 [label="freetime <= 3.0\nmse = 0.2\nsamples = 2\nvalue = 6.2"] ;
1300 -> 1301 ;
1302 [label="mse = 0.0\nsamples = 1\nvalue = 5.8"] ;
1301 -> 1302 ;
1303 [label="mse = 0.0\nsamples = 1\nvalue = 6.7"] ;
1301 -> 1303 ;
1304 [label="Fjob <= 0.5\nmse = 2.8\nsamples = 9\nvalue = 2.8"] ;
1300 -> 1304 ;
1305 [label="Mjob <= 0.5\nmse = 0.9\nsamples = 4\nvalue = 4.0"] ;
1304 -> 1305 ;
1306 [label="famrel <= 1.5\nmse = 0.1\nsamples = 2\nvalue = 3.4"] ;
1305 -> 1306 ;
1307 [label="mse = 0.0\nsamples = 1\nvalue = 3.8"] ;
1306 -> 1307 ;
1308 [label="mse = -0.0\nsamples = 1\nvalue = 3.2"] ;
1306 -> 1308 ;
1309 [label="school <= 2.0\nmse = 0.4\nsamples = 2\nvalue = 5.3"] ;
1305 -> 1309 ;
1310 [label="mse = 0.0\nsamples = 1\nvalue = 4.7"] ;
1309 -> 1310 ;
1311 [label="mse = -0.0\nsamples = 1\nvalue = 5.9"] ;
1309 -> 1311 ;
1312 [label="G2 <= 8.0\nmse = 1.0\nsamples = 5\nvalue = 1.2"] ;
1304 -> 1312 ;
1313 [label="mse = 0.0\nsamples = 2\nvalue = 0.1"] ;
1312 -> 1313 ;
1314 [label="reason <= 1.5\nmse = 0.3\nsamples = 3\nvalue = 1.9"] ;
1312 -> 1314 ;
1315 [label="goout <= 3.5\nmse = 0.0\nsamples = 2\nvalue = 1.5"] ;
1314 -> 1315 ;
1316 [label="mse = 0.0\nsamples = 1\nvalue = 1.7"] ;
1315 -> 1316 ;
1317 [label="mse = 0.0\nsamples = 1\nvalue = 1.3"] ;
1315 -> 1317 ;
1318 [label="mse = 0.0\nsamples = 1\nvalue = 2.7"] ;
1314 -> 1318 ;
1319 [label="course <= 0.5\nmse = 3.1\nsamples = 8\nvalue = 6.4"] ;
1299 -> 1319 ;
1320 [label="mse = 0.0\nsamples = 1\nvalue = 1.9"] ;
1319 -> 1320 ;
1321 [label="course <= 5.5\nmse = 1.2\nsamples = 7\nvalue = 6.8"] ;
1319 -> 1321 ;
1322 [label="traveltime <= 0.7\nmse = 0.3\nsamples = 6\nvalue = 6.3"] ;
1321 -> 1322 ;
1323 [label="schoolsup <= 0.5\nmse = 0.0\nsamples = 3\nvalue = 5.8"] ;
1322 -> 1323 ;
1324 [label="Medu <= 3.5\nmse = 0.0\nsamples = 2\nvalue = 5.8"] ;
1323 -> 1324 ;
1325 [label="mse = 0.0\nsamples = 1\nvalue = 5.8"] ;
1324 -> 1325 ;
1326 [label="mse = 0.0\nsamples = 1\nvalue = 5.7"] ;
1324 -> 1326 ;
1327 [label="mse = 0.0\nsamples = 1\nvalue = 6.0"] ;
1323 -> 1327 ;
1328 [label="G2 <= 7.1\nmse = 0.1\nsamples = 3\nvalue = 6.8"] ;
1322 -> 1328 ;
1329 [label="address <= 0.5\nmse = 0.0\nsamples = 2\nvalue = 7.0"] ;
1328 -> 1329 ;
1330 [label="mse = 0.0\nsamples = 1\nvalue = 7.0"] ;
1329 -> 1330 ;
1331 [label="mse = -0.0\nsamples = 1\nvalue = 7.1"] ;
1329 -> 1331 ;
1332 [label="mse = 0.0\nsamples = 1\nvalue = 6.2"] ;
1328 -> 1332 ;
1333 [label="mse = -0.0\nsamples = 1\nvalue = 8.8"] ;
1321 -> 1333 ;
1334 [label="famsize <= 3.5\nmse = 6.1\nsamples = 19\nvalue = 3.0"] ;
1294 -> 1334 ;
1335 [label="higher <= 0.5\nmse = 5.4\nsamples = 5\nvalue = 6.3"] ;
1334 -> 1335 ;
1336 [label="studytime <= 1.9\nmse = 1.2\nsamples = 2\nvalue = 4.0"] ;
1335 -> 1336 ;
1337 [label="mse = 0.0\nsamples = 1\nvalue = 2.5"] ;
1336 -> 1337 ;
1338 [label="mse = 0.0\nsamples = 1\nvalue = 4.8"] ;
1336 -> 1338 ;
1339 [label="Medu <= 3.5\nmse = 1.6\nsamples = 3\nvalue = 8.0"] ;
1335 -> 1339 ;
1340 [label="address <= 0.5\nmse = 0.0\nsamples = 2\nvalue = 9.3"] ;
1339 -> 1340 ;
1341 [label="mse = 0.0\nsamples = 1\nvalue = 9.2"] ;
1340 -> 1341 ;
1342 [label="mse = -0.0\nsamples = 1\nvalue = 9.4"] ;
1340 -> 1342 ;
1343 [label="mse = 0.0\nsamples = 1\nvalue = 6.8"] ;
1339 -> 1343 ;
1344 [label="G2 <= 5.6\nmse = 1.9\nsamples = 14\nvalue = 2.0"] ;
1334 -> 1344 ;
1345 [label="Medu <= 2.0\nmse = 1.0\nsamples = 12\nvalue = 1.7"] ;
1344 -> 1345 ;
1346 [label="school <= 0.5\nmse = 0.4\nsamples = 6\nvalue = 0.7"] ;
1345 -> 1346 ;
1347 [label="mse = 0.0\nsamples = 1\nvalue = 2.1"] ;
1346 -> 1347 ;
1348 [label="traveltime <= 2.3\nmse = 0.2\nsamples = 5\nvalue = 0.5"] ;
1346 -> 1348 ;
1349 [label="G1 <= 3.8\nmse = 0.1\nsamples = 3\nvalue = 0.8"] ;
1348 -> 1349 ;
1350 [label="mse = 0.0\nsamples = 1\nvalue = 1.0"] ;
1349 -> 1350 ;
1351 [label="Medu <= 0.5\nmse = 0.0\nsamples = 2\nvalue = 0.6"] ;
1349 -> 1351 ;
1352 [label="mse = 0.0\nsamples = 1\nvalue = 0.5"] ;
1351 -> 1352 ;
1353 [label="mse = -0.0\nsamples = 1\nvalue = 0.6"] ;
1351 -> 1353 ;
1354 [label="age <= 18.5\nmse = 0.0\nsamples = 2\nvalue = 0.1"] ;
1348 -> 1354 ;
1355 [label="mse = 0.0\nsamples = 1\nvalue = 0.1"] ;
1354 -> 1355 ;
1356 [label="mse = 0.0\nsamples = 1\nvalue = 0.0"] ;
1354 -> 1356 ;
1357 [label="G1 <= 7.8\nmse = 0.4\nsamples = 6\nvalue = 2.3"] ;
1345 -> 1357 ;
1358 [label="traveltime <= 2.6\nmse = 0.0\nsamples = 5\nvalue = 2.1"] ;
1357 -> 1358 ;
1359 [label="traveltime <= 1.8\nmse = 0.0\nsamples = 2\nvalue = 2.4"] ;
1358 -> 1359 ;
1360 [label="mse = -0.0\nsamples = 1\nvalue = 2.4"] ;
1359 -> 1360 ;
1361 [label="mse = 0.0\nsamples = 1\nvalue = 2.3"] ;
1359 -> 1361 ;
1362 [label="famrel <= 2.5\nmse = 0.0\nsamples = 3\nvalue = 1.9"] ;
1358 -> 1362 ;
